digraph Tree {
node [shape=box, style="filled, rounded", color="black", fontname="helvetica"] ;
edge [fontname="helvetica"] ;
0 [label=<HighBP &le; -0.147<br/>entropy = 1.0<br/>samples = 367659<br/>value = [183754, 183905]<br/>class = Disease>, fillcolor="#ffffff"] ;
1 [label=<DiffWalk &le; 0.494<br/>entropy = 0.873<br/>samples = 156929<br/>value = [110953, 45976]<br/>class = No Disease>, fillcolor="#f0b58b"] ;
0 -> 1 [labeldistance=2.5, labelangle=45, headlabel="True"] ;
2 [label=<HighChol &le; -0.097<br/>entropy = 0.79<br/>samples = 132855<br/>value = [101363, 31492]<br/>class = No Disease>, fillcolor="#eda877"] ;
1 -> 2 ;
3 [label=<Age_12 &le; 1.199<br/>entropy = 0.662<br/>samples = 88534<br/>value = [73309, 15225]<br/>class = No Disease>, fillcolor="#ea9b62"] ;
2 -> 3 ;
4 [label=<Stroke &le; 1.367<br/>entropy = 0.607<br/>samples = 83732<br/>value = [71251, 12481]<br/>class = No Disease>, fillcolor="#ea975c"] ;
3 -> 4 ;
5 [label=<Age_11 &le; 1.4<br/>entropy = 0.577<br/>samples = 82028<br/>value = [70763, 11265]<br/>class = No Disease>, fillcolor="#e99559"] ;
4 -> 5 ;
6 [label=<Age_10 &le; 1.132<br/>entropy = 0.534<br/>samples = 78387<br/>value = [68842, 9545]<br/>class = No Disease>, fillcolor="#e99254"] ;
5 -> 6 ;
7 [label=<Age_9 &le; 0.984<br/>entropy = 0.486<br/>samples = 73419<br/>value = [65685, 7734]<br/>class = No Disease>, fillcolor="#e89050"] ;
6 -> 7 ;
8 [label=<Age_8 &le; 1.068<br/>entropy = 0.421<br/>samples = 66010<br/>value = [60366, 5644]<br/>class = No Disease>, fillcolor="#e78d4c"] ;
7 -> 8 ;
9 [label=<GenHlth_0 &le; 1.186<br/>entropy = 0.364<br/>samples = 57407<br/>value = [53414, 3993]<br/>class = No Disease>, fillcolor="#e78a48"] ;
8 -> 9 ;
10 [label=<entropy = 0.425<br/>samples = 40779<br/>value = [37253, 3526]<br/>class = No Disease>, fillcolor="#e78d4c"] ;
9 -> 10 ;
11 [label=<entropy = 0.185<br/>samples = 16628<br/>value = [16161, 467]<br/>class = No Disease>, fillcolor="#e6853f"] ;
9 -> 11 ;
12 [label=<Sex &le; -0.001<br/>entropy = 0.705<br/>samples = 8603<br/>value = [6952, 1651]<br/>class = No Disease>, fillcolor="#eb9f68"] ;
8 -> 12 ;
13 [label=<entropy = 0.521<br/>samples = 4626<br/>value = [4084, 542]<br/>class = No Disease>, fillcolor="#e89253"] ;
12 -> 13 ;
14 [label=<entropy = 0.854<br/>samples = 3977<br/>value = [2868, 1109]<br/>class = No Disease>, fillcolor="#efb286"] ;
12 -> 14 ;
15 [label=<Sex &le; -0.001<br/>entropy = 0.858<br/>samples = 7409<br/>value = [5319, 2090]<br/>class = No Disease>, fillcolor="#efb387"] ;
7 -> 15 ;
16 [label=<GenHlth_2 &le; 0.402<br/>entropy = 0.686<br/>samples = 3838<br/>value = [3136, 702]<br/>class = No Disease>, fillcolor="#eb9d65"] ;
15 -> 16 ;
17 [label=<entropy = 0.598<br/>samples = 3013<br/>value = [2575, 438]<br/>class = No Disease>, fillcolor="#e9965b"] ;
16 -> 17 ;
18 [label=<entropy = 0.904<br/>samples = 825<br/>value = [561, 264]<br/>class = No Disease>, fillcolor="#f1bc96"] ;
16 -> 18 ;
19 [label=<GenHlth_0 &le; 1.186<br/>entropy = 0.964<br/>samples = 3571<br/>value = [2183, 1388]<br/>class = No Disease>, fillcolor="#f6d1b7"] ;
15 -> 19 ;
20 [label=<entropy = 0.994<br/>samples = 2719<br/>value = [1483, 1236]<br/>class = No Disease>, fillcolor="#fbeade"] ;
19 -> 20 ;
21 [label=<entropy = 0.677<br/>samples = 852<br/>value = [700, 152]<br/>class = No Disease>, fillcolor="#eb9c64"] ;
19 -> 21 ;
22 [label=<Sex &le; -0.001<br/>entropy = 0.946<br/>samples = 4968<br/>value = [3157, 1811]<br/>class = No Disease>, fillcolor="#f4c9ab"] ;
6 -> 22 ;
23 [label=<GenHlth_3 &le; 0.772<br/>entropy = 0.741<br/>samples = 2373<br/>value = [1875, 498]<br/>class = No Disease>, fillcolor="#eca26e"] ;
22 -> 23 ;
24 [label=<Smoker &le; -0.044<br/>entropy = 0.685<br/>samples = 2228<br/>value = [1822, 406]<br/>class = No Disease>, fillcolor="#eb9d65"] ;
23 -> 24 ;
25 [label=<entropy = 0.54<br/>samples = 1180<br/>value = [1034, 146]<br/>class = No Disease>, fillcolor="#e99355"] ;
24 -> 25 ;
26 [label=<entropy = 0.808<br/>samples = 1048<br/>value = [788, 260]<br/>class = No Disease>, fillcolor="#eeab7a"] ;
24 -> 26 ;
27 [label=<MentHlth &le; 1.648<br/>entropy = 0.947<br/>samples = 145<br/>value = [53, 92]<br/>class = Disease>, fillcolor="#abd5f4"] ;
23 -> 27 ;
28 [label=<entropy = 0.918<br/>samples = 138<br/>value = [46, 92]<br/>class = Disease>, fillcolor="#9ccef2"] ;
27 -> 28 ;
29 [label=<entropy = 0.0<br/>samples = 7<br/>value = [7, 0]<br/>class = No Disease>, fillcolor="#e58139"] ;
27 -> 29 ;
30 [label=<GenHlth_0 &le; 1.186<br/>entropy = 1.0<br/>samples = 2595<br/>value = [1282, 1313]<br/>class = Disease>, fillcolor="#fafdfe"] ;
22 -> 30 ;
31 [label=<CholCheck &le; -2.996<br/>entropy = 0.981<br/>samples = 2035<br/>value = [854, 1181]<br/>class = Disease>, fillcolor="#c8e4f8"] ;
30 -> 31 ;
32 [label=<entropy = 0.0<br/>samples = 26<br/>value = [26, 0]<br/>class = No Disease>, fillcolor="#e58139"] ;
31 -> 32 ;
33 [label=<entropy = 0.978<br/>samples = 2009<br/>value = [828, 1181]<br/>class = Disease>, fillcolor="#c4e2f7"] ;
31 -> 33 ;
34 [label=<PhysHlth &le; -0.469<br/>entropy = 0.788<br/>samples = 560<br/>value = [428, 132]<br/>class = No Disease>, fillcolor="#eda876"] ;
30 -> 34 ;
35 [label=<entropy = 0.817<br/>samples = 520<br/>value = [388, 132]<br/>class = No Disease>, fillcolor="#eeac7c"] ;
34 -> 35 ;
36 [label=<entropy = 0.0<br/>samples = 40<br/>value = [40, 0]<br/>class = No Disease>, fillcolor="#e58139"] ;
34 -> 36 ;
37 [label=<Sex &le; -0.001<br/>entropy = 0.998<br/>samples = 3641<br/>value = [1921, 1720]<br/>class = No Disease>, fillcolor="#fcf2ea"] ;
5 -> 37 ;
38 [label=<GenHlth_3 &le; 0.772<br/>entropy = 0.882<br/>samples = 1599<br/>value = [1118, 481]<br/>class = No Disease>, fillcolor="#f0b78e"] ;
37 -> 38 ;
39 [label=<GenHlth_2 &le; 0.402<br/>entropy = 0.826<br/>samples = 1444<br/>value = [1069, 375]<br/>class = No Disease>, fillcolor="#eead7e"] ;
38 -> 39 ;
40 [label=<Fruits &le; -0.249<br/>entropy = 0.696<br/>samples = 986<br/>value = [801, 185]<br/>class = No Disease>, fillcolor="#eb9e67"] ;
39 -> 40 ;
41 [label=<entropy = 0.892<br/>samples = 243<br/>value = [168, 75]<br/>class = No Disease>, fillcolor="#f1b991"] ;
40 -> 41 ;
42 [label=<entropy = 0.605<br/>samples = 743<br/>value = [633, 110]<br/>class = No Disease>, fillcolor="#ea975b"] ;
40 -> 42 ;
43 [label=<NoDocbcCost &le; 1.372<br/>entropy = 0.979<br/>samples = 458<br/>value = [268, 190]<br/>class = No Disease>, fillcolor="#f7dac5"] ;
39 -> 43 ;
44 [label=<entropy = 0.984<br/>samples = 446<br/>value = [256, 190]<br/>class = No Disease>, fillcolor="#f8dfcc"] ;
43 -> 44 ;
45 [label=<entropy = 0.0<br/>samples = 12<br/>value = [12, 0]<br/>class = No Disease>, fillcolor="#e58139"] ;
43 -> 45 ;
46 [label=<HvyAlcoholConsump &le; 2.154<br/>entropy = 0.9<br/>samples = 155<br/>value = [49, 106]<br/>class = Disease>, fillcolor="#95caf1"] ;
38 -> 46 ;
47 [label=<Smoker &le; -0.044<br/>entropy = 0.884<br/>samples = 152<br/>value = [46, 106]<br/>class = Disease>, fillcolor="#8fc8f0"] ;
46 -> 47 ;
48 [label=<entropy = 0.974<br/>samples = 64<br/>value = [26, 38]<br/>class = Disease>, fillcolor="#c0e0f7"] ;
47 -> 48 ;
49 [label=<entropy = 0.773<br/>samples = 88<br/>value = [20, 68]<br/>class = Disease>, fillcolor="#73baed"] ;
47 -> 49 ;
50 [label=<entropy = 0.0<br/>samples = 3<br/>value = [3, 0]<br/>class = No Disease>, fillcolor="#e58139"] ;
46 -> 50 ;
51 [label=<GenHlth_0 &le; 1.186<br/>entropy = 0.967<br/>samples = 2042<br/>value = [803, 1239]<br/>class = Disease>, fillcolor="#b9ddf6"] ;
37 -> 51 ;
52 [label=<Smoker &le; -0.044<br/>entropy = 0.922<br/>samples = 1735<br/>value = [585, 1150]<br/>class = Disease>, fillcolor="#9ecff2"] ;
51 -> 52 ;
53 [label=<NoDocbcCost &le; 1.372<br/>entropy = 0.999<br/>samples = 561<br/>value = [271, 290]<br/>class = Disease>, fillcolor="#f2f9fd"] ;
52 -> 53 ;
54 [label=<entropy = 0.998<br/>samples = 549<br/>value = [259, 290]<br/>class = Disease>, fillcolor="#eaf5fc"] ;
53 -> 54 ;
55 [label=<entropy = 0.0<br/>samples = 12<br/>value = [12, 0]<br/>class = No Disease>, fillcolor="#e58139"] ;
53 -> 55 ;
56 [label=<Diabetes_0 &le; -0.587<br/>entropy = 0.838<br/>samples = 1174<br/>value = [314, 860]<br/>class = Disease>, fillcolor="#81c1ee"] ;
52 -> 56 ;
57 [label=<entropy = 0.689<br/>samples = 288<br/>value = [53, 235]<br/>class = Disease>, fillcolor="#66b3eb"] ;
56 -> 57 ;
58 [label=<entropy = 0.875<br/>samples = 886<br/>value = [261, 625]<br/>class = Disease>, fillcolor="#8cc6f0"] ;
56 -> 58 ;
59 [label=<PhysHlth &le; -0.184<br/>entropy = 0.869<br/>samples = 307<br/>value = [218, 89]<br/>class = No Disease>, fillcolor="#f0b48a"] ;
51 -> 59 ;
60 [label=<PhysHlth &le; -0.374<br/>entropy = 0.883<br/>samples = 295<br/>value = [206, 89]<br/>class = No Disease>, fillcolor="#f0b78f"] ;
59 -> 60 ;
61 [label=<entropy = 0.838<br/>samples = 280<br/>value = [205, 75]<br/>class = No Disease>, fillcolor="#efaf81"] ;
60 -> 61 ;
62 [label=<entropy = 0.353<br/>samples = 15<br/>value = [1, 14]<br/>class = Disease>, fillcolor="#47a4e7"] ;
60 -> 62 ;
63 [label=<entropy = 0.0<br/>samples = 12<br/>value = [12, 0]<br/>class = No Disease>, fillcolor="#e58139"] ;
59 -> 63 ;
64 [label=<Sex &le; -0.001<br/>entropy = 0.864<br/>samples = 1704<br/>value = [488, 1216]<br/>class = Disease>, fillcolor="#88c4ef"] ;
4 -> 64 ;
65 [label=<Age_4 &le; 2.286<br/>entropy = 0.974<br/>samples = 756<br/>value = [307, 449]<br/>class = Disease>, fillcolor="#c0e0f7"] ;
64 -> 65 ;
66 [label=<PhysHlth &le; -0.089<br/>entropy = 0.957<br/>samples = 723<br/>value = [274, 449]<br/>class = Disease>, fillcolor="#b2d9f5"] ;
65 -> 66 ;
67 [label=<PhysHlth &le; -0.279<br/>entropy = 0.999<br/>samples = 448<br/>value = [218, 230]<br/>class = Disease>, fillcolor="#f5fafe"] ;
66 -> 67 ;
68 [label=<Age_2 &le; 2.959<br/>entropy = 0.996<br/>samples = 430<br/>value = [200, 230]<br/>class = Disease>, fillcolor="#e5f2fc"] ;
67 -> 68 ;
69 [label=<entropy = 1.0<br/>samples = 378<br/>value = [191, 187]<br/>class = No Disease>, fillcolor="#fefcfb"] ;
68 -> 69 ;
70 [label=<entropy = 0.665<br/>samples = 52<br/>value = [9, 43]<br/>class = Disease>, fillcolor="#62b2ea"] ;
68 -> 70 ;
71 [label=<entropy = 0.0<br/>samples = 18<br/>value = [18, 0]<br/>class = No Disease>, fillcolor="#e58139"] ;
67 -> 71 ;
72 [label=<CholCheck &le; -2.996<br/>entropy = 0.729<br/>samples = 275<br/>value = [56, 219]<br/>class = Disease>, fillcolor="#6cb6ec"] ;
66 -> 72 ;
73 [label=<entropy = 0.0<br/>samples = 4<br/>value = [4, 0]<br/>class = No Disease>, fillcolor="#e58139"] ;
72 -> 73 ;
74 [label=<GenHlth_0 &le; 1.186<br/>entropy = 0.705<br/>samples = 271<br/>value = [52, 219]<br/>class = Disease>, fillcolor="#68b4eb"] ;
72 -> 74 ;
75 [label=<entropy = 0.686<br/>samples = 268<br/>value = [49, 219]<br/>class = Disease>, fillcolor="#65b3eb"] ;
74 -> 75 ;
76 [label=<entropy = 0.0<br/>samples = 3<br/>value = [3, 0]<br/>class = No Disease>, fillcolor="#e58139"] ;
74 -> 76 ;
77 [label=<entropy = 0.0<br/>samples = 33<br/>value = [33, 0]<br/>class = No Disease>, fillcolor="#e58139"] ;
65 -> 77 ;
78 [label=<Smoker &le; -0.044<br/>entropy = 0.703<br/>samples = 948<br/>value = [181, 767]<br/>class = Disease>, fillcolor="#68b4eb"] ;
64 -> 78 ;
79 [label=<Age_5 &le; 1.923<br/>entropy = 0.904<br/>samples = 275<br/>value = [88, 187]<br/>class = Disease>, fillcolor="#96cbf1"] ;
78 -> 79 ;
80 [label=<NoDocbcCost &le; 1.372<br/>entropy = 0.884<br/>samples = 268<br/>value = [81, 187]<br/>class = Disease>, fillcolor="#8fc7f0"] ;
79 -> 80 ;
81 [label=<MentHlth &le; 0.562<br/>entropy = 0.864<br/>samples = 262<br/>value = [75, 187]<br/>class = Disease>, fillcolor="#88c4ef"] ;
80 -> 81 ;
82 [label=<entropy = 0.895<br/>samples = 241<br/>value = [75, 166]<br/>class = Disease>, fillcolor="#92c9f1"] ;
81 -> 82 ;
83 [label=<entropy = 0.0<br/>samples = 21<br/>value = [0, 21]<br/>class = Disease>, fillcolor="#399de5"] ;
81 -> 83 ;
84 [label=<entropy = 0.0<br/>samples = 6<br/>value = [6, 0]<br/>class = No Disease>, fillcolor="#e58139"] ;
80 -> 84 ;
85 [label=<entropy = 0.0<br/>samples = 7<br/>value = [7, 0]<br/>class = No Disease>, fillcolor="#e58139"] ;
79 -> 85 ;
86 [label=<Age_4 &le; 2.286<br/>entropy = 0.579<br/>samples = 673<br/>value = [93, 580]<br/>class = Disease>, fillcolor="#59ade9"] ;
78 -> 86 ;
87 [label=<MentHlth &le; 1.346<br/>entropy = 0.562<br/>samples = 668<br/>value = [88, 580]<br/>class = Disease>, fillcolor="#57ace9"] ;
86 -> 87 ;
88 [label=<Age_3 &le; 2.586<br/>entropy = 0.621<br/>samples = 557<br/>value = [86, 471]<br/>class = Disease>, fillcolor="#5dafea"] ;
87 -> 88 ;
89 [label=<entropy = 0.609<br/>samples = 554<br/>value = [83, 471]<br/>class = Disease>, fillcolor="#5caeea"] ;
88 -> 89 ;
90 [label=<entropy = 0.0<br/>samples = 3<br/>value = [3, 0]<br/>class = No Disease>, fillcolor="#e58139"] ;
88 -> 90 ;
91 [label=<Age_5 &le; 1.923<br/>entropy = 0.13<br/>samples = 111<br/>value = [2, 109]<br/>class = Disease>, fillcolor="#3d9fe5"] ;
87 -> 91 ;
92 [label=<entropy = 0.075<br/>samples = 110<br/>value = [1, 109]<br/>class = Disease>, fillcolor="#3b9ee5"] ;
91 -> 92 ;
93 [label=<entropy = 0.0<br/>samples = 1<br/>value = [1, 0]<br/>class = No Disease>, fillcolor="#e58139"] ;
91 -> 93 ;
94 [label=<entropy = 0.0<br/>samples = 5<br/>value = [5, 0]<br/>class = No Disease>, fillcolor="#e58139"] ;
86 -> 94 ;
95 [label=<Sex &le; -0.001<br/>entropy = 0.985<br/>samples = 4802<br/>value = [2058, 2744]<br/>class = Disease>, fillcolor="#cee6f8"] ;
3 -> 95 ;
96 [label=<Stroke &le; 1.367<br/>entropy = 0.989<br/>samples = 2107<br/>value = [1182, 925]<br/>class = No Disease>, fillcolor="#f9e4d4"] ;
95 -> 96 ;
97 [label=<PhysHlth &le; -0.279<br/>entropy = 0.968<br/>samples = 1911<br/>value = [1155, 756]<br/>class = No Disease>, fillcolor="#f6d3bb"] ;
96 -> 97 ;
98 [label=<Veggies &le; -0.711<br/>entropy = 0.921<br/>samples = 1509<br/>value = [1002, 507]<br/>class = No Disease>, fillcolor="#f2c19d"] ;
97 -> 98 ;
99 [label=<GenHlth_3 &le; 0.772<br/>entropy = 0.999<br/>samples = 299<br/>value = [154, 145]<br/>class = No Disease>, fillcolor="#fdf8f3"] ;
98 -> 99 ;
100 [label=<GenHlth_1 &le; 0.515<br/>entropy = 0.991<br/>samples = 273<br/>value = [152, 121]<br/>class = No Disease>, fillcolor="#fae5d7"] ;
99 -> 100 ;
101 [label=<entropy = 0.996<br/>samples = 172<br/>value = [80, 92]<br/>class = Disease>, fillcolor="#e5f2fc"] ;
100 -> 101 ;
102 [label=<entropy = 0.865<br/>samples = 101<br/>value = [72, 29]<br/>class = No Disease>, fillcolor="#efb489"] ;
100 -> 102 ;
103 [label=<PhysActivity &le; -0.448<br/>entropy = 0.391<br/>samples = 26<br/>value = [2, 24]<br/>class = Disease>, fillcolor="#49a5e7"] ;
99 -> 103 ;
104 [label=<entropy = 0.242<br/>samples = 25<br/>value = [1, 24]<br/>class = Disease>, fillcolor="#41a1e6"] ;
103 -> 104 ;
105 [label=<entropy = 0.0<br/>samples = 1<br/>value = [1, 0]<br/>class = No Disease>, fillcolor="#e58139"] ;
103 -> 105 ;
106 [label=<MentHlth &le; -0.042<br/>entropy = 0.88<br/>samples = 1210<br/>value = [848, 362]<br/>class = No Disease>, fillcolor="#f0b78e"] ;
98 -> 106 ;
107 [label=<PhysActivity &le; -0.448<br/>entropy = 0.857<br/>samples = 1117<br/>value = [803, 314]<br/>class = No Disease>, fillcolor="#efb286"] ;
106 -> 107 ;
108 [label=<entropy = 0.975<br/>samples = 292<br/>value = [173, 119]<br/>class = No Disease>, fillcolor="#f7d8c1"] ;
107 -> 108 ;
109 [label=<entropy = 0.789<br/>samples = 825<br/>value = [630, 195]<br/>class = No Disease>, fillcolor="#eda876"] ;
107 -> 109 ;
110 [label=<MentHlth &le; 0.682<br/>entropy = 0.999<br/>samples = 93<br/>value = [45, 48]<br/>class = Disease>, fillcolor="#f3f9fd"] ;
106 -> 110 ;
111 [label=<entropy = 0.909<br/>samples = 71<br/>value = [23, 48]<br/>class = Disease>, fillcolor="#98ccf1"] ;
110 -> 111 ;
112 [label=<entropy = 0.0<br/>samples = 22<br/>value = [22, 0]<br/>class = No Disease>, fillcolor="#e58139"] ;
110 -> 112 ;
113 [label=<GenHlth_1 &le; 0.515<br/>entropy = 0.958<br/>samples = 402<br/>value = [153, 249]<br/>class = Disease>, fillcolor="#b3d9f5"] ;
97 -> 113 ;
114 [label=<PhysHlth &le; -0.184<br/>entropy = 0.896<br/>samples = 314<br/>value = [98, 216]<br/>class = Disease>, fillcolor="#93c9f1"] ;
113 -> 114 ;
115 [label=<GenHlth_3 &le; 0.772<br/>entropy = 0.509<br/>samples = 62<br/>value = [7, 55]<br/>class = Disease>, fillcolor="#52a9e8"] ;
114 -> 115 ;
116 [label=<entropy = 0.414<br/>samples = 60<br/>value = [5, 55]<br/>class = Disease>, fillcolor="#4ba6e7"] ;
115 -> 116 ;
117 [label=<entropy = 0.0<br/>samples = 2<br/>value = [2, 0]<br/>class = No Disease>, fillcolor="#e58139"] ;
115 -> 117 ;
118 [label=<GenHlth_2 &le; 0.402<br/>entropy = 0.944<br/>samples = 252<br/>value = [91, 161]<br/>class = Disease>, fillcolor="#a9d4f4"] ;
114 -> 118 ;
119 [label=<entropy = 0.831<br/>samples = 179<br/>value = [47, 132]<br/>class = Disease>, fillcolor="#80c0ee"] ;
118 -> 119 ;
120 [label=<entropy = 0.969<br/>samples = 73<br/>value = [44, 29]<br/>class = No Disease>, fillcolor="#f6d4bc"] ;
118 -> 120 ;
121 [label=<MentHlth &le; 0.079<br/>entropy = 0.954<br/>samples = 88<br/>value = [55, 33]<br/>class = No Disease>, fillcolor="#f5cdb0"] ;
113 -> 121 ;
122 [label=<PhysHlth &le; 0.101<br/>entropy = 0.849<br/>samples = 69<br/>value = [50, 19]<br/>class = No Disease>, fillcolor="#efb184"] ;
121 -> 122 ;
123 [label=<entropy = 0.993<br/>samples = 42<br/>value = [23, 19]<br/>class = No Disease>, fillcolor="#fae9dd"] ;
122 -> 123 ;
124 [label=<entropy = 0.0<br/>samples = 27<br/>value = [27, 0]<br/>class = No Disease>, fillcolor="#e58139"] ;
122 -> 124 ;
125 [label=<PhysHlth &le; 0.48<br/>entropy = 0.831<br/>samples = 19<br/>value = [5, 14]<br/>class = Disease>, fillcolor="#80c0ee"] ;
121 -> 125 ;
126 [label=<entropy = 0.0<br/>samples = 4<br/>value = [4, 0]<br/>class = No Disease>, fillcolor="#e58139"] ;
125 -> 126 ;
127 [label=<entropy = 0.353<br/>samples = 15<br/>value = [1, 14]<br/>class = Disease>, fillcolor="#47a4e7"] ;
125 -> 127 ;
128 [label=<PhysHlth &le; -0.516<br/>entropy = 0.578<br/>samples = 196<br/>value = [27, 169]<br/>class = Disease>, fillcolor="#59ade9"] ;
96 -> 128 ;
129 [label=<GenHlth_0 &le; 1.186<br/>entropy = 0.76<br/>samples = 100<br/>value = [22, 78]<br/>class = Disease>, fillcolor="#71b9ec"] ;
128 -> 129 ;
130 [label=<MentHlth &le; -0.343<br/>entropy = 0.696<br/>samples = 96<br/>value = [18, 78]<br/>class = Disease>, fillcolor="#67b4eb"] ;
129 -> 130 ;
131 [label=<Fruits &le; -0.249<br/>entropy = 0.848<br/>samples = 51<br/>value = [14, 37]<br/>class = Disease>, fillcolor="#84c2ef"] ;
130 -> 131 ;
132 [label=<entropy = 0.0<br/>samples = 2<br/>value = [2, 0]<br/>class = No Disease>, fillcolor="#e58139"] ;
131 -> 132 ;
133 [label=<entropy = 0.803<br/>samples = 49<br/>value = [12, 37]<br/>class = Disease>, fillcolor="#79bded"] ;
131 -> 133 ;
134 [label=<MentHlth &le; 2.553<br/>entropy = 0.433<br/>samples = 45<br/>value = [4, 41]<br/>class = Disease>, fillcolor="#4ca7e8"] ;
130 -> 134 ;
135 [label=<entropy = 0.359<br/>samples = 44<br/>value = [3, 41]<br/>class = Disease>, fillcolor="#47a4e7"] ;
134 -> 135 ;
136 [label=<entropy = 0.0<br/>samples = 1<br/>value = [1, 0]<br/>class = No Disease>, fillcolor="#e58139"] ;
134 -> 136 ;
137 [label=<entropy = 0.0<br/>samples = 4<br/>value = [4, 0]<br/>class = No Disease>, fillcolor="#e58139"] ;
129 -> 137 ;
138 [label=<GenHlth_4 &le; 1.307<br/>entropy = 0.295<br/>samples = 96<br/>value = [5, 91]<br/>class = Disease>, fillcolor="#44a2e6"] ;
128 -> 138 ;
139 [label=<PhysHlth &le; 1.998<br/>entropy = 0.409<br/>samples = 61<br/>value = [5, 56]<br/>class = Disease>, fillcolor="#4ba6e7"] ;
138 -> 139 ;
140 [label=<MentHlth &le; 0.139<br/>entropy = 0.29<br/>samples = 59<br/>value = [3, 56]<br/>class = Disease>, fillcolor="#44a2e6"] ;
139 -> 140 ;
141 [label=<entropy = 0.216<br/>samples = 58<br/>value = [2, 56]<br/>class = Disease>, fillcolor="#40a0e6"] ;
140 -> 141 ;
142 [label=<entropy = 0.0<br/>samples = 1<br/>value = [1, 0]<br/>class = No Disease>, fillcolor="#e58139"] ;
140 -> 142 ;
143 [label=<entropy = 0.0<br/>samples = 2<br/>value = [2, 0]<br/>class = No Disease>, fillcolor="#e58139"] ;
139 -> 143 ;
144 [label=<entropy = 0.0<br/>samples = 35<br/>value = [0, 35]<br/>class = Disease>, fillcolor="#399de5"] ;
138 -> 144 ;
145 [label=<GenHlth_0 &le; 1.186<br/>entropy = 0.91<br/>samples = 2695<br/>value = [876, 1819]<br/>class = Disease>, fillcolor="#98ccf2"] ;
95 -> 145 ;
146 [label=<Stroke &le; 1.367<br/>entropy = 0.871<br/>samples = 2307<br/>value = [673, 1634]<br/>class = Disease>, fillcolor="#8bc5f0"] ;
145 -> 146 ;
147 [label=<GenHlth_3 &le; 0.772<br/>entropy = 0.897<br/>samples = 2042<br/>value = [640, 1402]<br/>class = Disease>, fillcolor="#93caf1"] ;
146 -> 147 ;
148 [label=<MentHlth &le; -0.404<br/>entropy = 0.914<br/>samples = 1756<br/>value = [578, 1178]<br/>class = Disease>, fillcolor="#9acdf2"] ;
147 -> 148 ;
149 [label=<Diabetes_2 &le; 0.66<br/>entropy = 0.934<br/>samples = 1510<br/>value = [529, 981]<br/>class = Disease>, fillcolor="#a4d2f3"] ;
148 -> 149 ;
150 [label=<entropy = 0.954<br/>samples = 1261<br/>value = [472, 789]<br/>class = Disease>, fillcolor="#afd8f5"] ;
149 -> 150 ;
151 [label=<entropy = 0.776<br/>samples = 249<br/>value = [57, 192]<br/>class = Disease>, fillcolor="#74baed"] ;
149 -> 151 ;
152 [label=<Veggies &le; -0.711<br/>entropy = 0.72<br/>samples = 246<br/>value = [49, 197]<br/>class = Disease>, fillcolor="#6ab5eb"] ;
148 -> 152 ;
153 [label=<entropy = 0.435<br/>samples = 67<br/>value = [6, 61]<br/>class = Disease>, fillcolor="#4ca7e8"] ;
152 -> 153 ;
154 [label=<entropy = 0.795<br/>samples = 179<br/>value = [43, 136]<br/>class = Disease>, fillcolor="#78bced"] ;
152 -> 154 ;
155 [label=<MentHlth &le; -0.283<br/>entropy = 0.754<br/>samples = 286<br/>value = [62, 224]<br/>class = Disease>, fillcolor="#70b8ec"] ;
147 -> 155 ;
156 [label=<NoDocbcCost &le; 1.372<br/>entropy = 0.728<br/>samples = 281<br/>value = [57, 224]<br/>class = Disease>, fillcolor="#6bb6ec"] ;
155 -> 156 ;
157 [label=<entropy = 0.71<br/>samples = 278<br/>value = [54, 224]<br/>class = Disease>, fillcolor="#69b5eb"] ;
156 -> 157 ;
158 [label=<entropy = 0.0<br/>samples = 3<br/>value = [3, 0]<br/>class = No Disease>, fillcolor="#e58139"] ;
156 -> 158 ;
159 [label=<entropy = 0.0<br/>samples = 5<br/>value = [5, 0]<br/>class = No Disease>, fillcolor="#e58139"] ;
155 -> 159 ;
160 [label=<GenHlth_1 &le; 0.515<br/>entropy = 0.542<br/>samples = 265<br/>value = [33, 232]<br/>class = Disease>, fillcolor="#55abe9"] ;
146 -> 160 ;
161 [label=<MentHlth &le; 0.441<br/>entropy = 0.459<br/>samples = 227<br/>value = [22, 205]<br/>class = Disease>, fillcolor="#4ea8e8"] ;
160 -> 161 ;
162 [label=<MentHlth &le; -0.283<br/>entropy = 0.407<br/>samples = 209<br/>value = [17, 192]<br/>class = Disease>, fillcolor="#4ba6e7"] ;
161 -> 162 ;
163 [label=<entropy = 0.462<br/>samples = 174<br/>value = [17, 157]<br/>class = Disease>, fillcolor="#4ea8e8"] ;
162 -> 163 ;
164 [label=<entropy = 0.0<br/>samples = 35<br/>value = [0, 35]<br/>class = Disease>, fillcolor="#399de5"] ;
162 -> 164 ;
165 [label=<PhysHlth &le; -0.469<br/>entropy = 0.852<br/>samples = 18<br/>value = [5, 13]<br/>class = Disease>, fillcolor="#85c3ef"] ;
161 -> 165 ;
166 [label=<entropy = 0.0<br/>samples = 13<br/>value = [0, 13]<br/>class = Disease>, fillcolor="#399de5"] ;
165 -> 166 ;
167 [label=<entropy = 0.0<br/>samples = 5<br/>value = [5, 0]<br/>class = No Disease>, fillcolor="#e58139"] ;
165 -> 167 ;
168 [label=<Diabetes_0 &le; -0.587<br/>entropy = 0.868<br/>samples = 38<br/>value = [11, 27]<br/>class = Disease>, fillcolor="#8ac5f0"] ;
160 -> 168 ;
169 [label=<entropy = 0.0<br/>samples = 3<br/>value = [3, 0]<br/>class = No Disease>, fillcolor="#e58139"] ;
168 -> 169 ;
170 [label=<PhysHlth &le; -0.516<br/>entropy = 0.776<br/>samples = 35<br/>value = [8, 27]<br/>class = Disease>, fillcolor="#74baed"] ;
168 -> 170 ;
171 [label=<entropy = 0.684<br/>samples = 33<br/>value = [6, 27]<br/>class = Disease>, fillcolor="#65b3eb"] ;
170 -> 171 ;
172 [label=<entropy = 0.0<br/>samples = 2<br/>value = [2, 0]<br/>class = No Disease>, fillcolor="#e58139"] ;
170 -> 172 ;
173 [label=<AnyHealthcare &le; -2.242<br/>entropy = 0.998<br/>samples = 388<br/>value = [203, 185]<br/>class = No Disease>, fillcolor="#fdf4ed"] ;
145 -> 173 ;
174 [label=<HvyAlcoholConsump &le; 2.154<br/>entropy = 0.276<br/>samples = 21<br/>value = [1, 20]<br/>class = Disease>, fillcolor="#43a2e6"] ;
173 -> 174 ;
175 [label=<entropy = 0.0<br/>samples = 20<br/>value = [0, 20]<br/>class = Disease>, fillcolor="#399de5"] ;
174 -> 175 ;
176 [label=<entropy = 0.0<br/>samples = 1<br/>value = [1, 0]<br/>class = No Disease>, fillcolor="#e58139"] ;
174 -> 176 ;
177 [label=<Diabetes_2 &le; 0.66<br/>entropy = 0.993<br/>samples = 367<br/>value = [202, 165]<br/>class = No Disease>, fillcolor="#fae8db"] ;
173 -> 177 ;
178 [label=<CholCheck &le; -2.996<br/>entropy = 0.996<br/>samples = 355<br/>value = [190, 165]<br/>class = No Disease>, fillcolor="#fceee5"] ;
177 -> 178 ;
179 [label=<Fruits &le; -0.249<br/>entropy = 0.799<br/>samples = 33<br/>value = [8, 25]<br/>class = Disease>, fillcolor="#78bced"] ;
178 -> 179 ;
180 [label=<entropy = 0.0<br/>samples = 11<br/>value = [0, 11]<br/>class = Disease>, fillcolor="#399de5"] ;
179 -> 180 ;
181 [label=<entropy = 0.946<br/>samples = 22<br/>value = [8, 14]<br/>class = Disease>, fillcolor="#aad5f4"] ;
179 -> 181 ;
182 [label=<MentHlth &le; -0.404<br/>entropy = 0.988<br/>samples = 322<br/>value = [182, 140]<br/>class = No Disease>, fillcolor="#f9e2d1"] ;
178 -> 182 ;
183 [label=<entropy = 0.973<br/>samples = 293<br/>value = [175, 118]<br/>class = No Disease>, fillcolor="#f7d6bf"] ;
182 -> 183 ;
184 [label=<entropy = 0.797<br/>samples = 29<br/>value = [7, 22]<br/>class = Disease>, fillcolor="#78bced"] ;
182 -> 184 ;
185 [label=<entropy = 0.0<br/>samples = 12<br/>value = [12, 0]<br/>class = No Disease>, fillcolor="#e58139"] ;
177 -> 185 ;
186 [label=<Sex &le; -0.001<br/>entropy = 0.948<br/>samples = 44321<br/>value = [28054, 16267]<br/>class = No Disease>, fillcolor="#f4caac"] ;
2 -> 186 ;
187 [label=<Age_12 &le; 1.199<br/>entropy = 0.798<br/>samples = 21008<br/>value = [15929, 5079]<br/>class = No Disease>, fillcolor="#eda978"] ;
186 -> 187 ;
188 [label=<GenHlth_3 &le; 0.772<br/>entropy = 0.753<br/>samples = 19506<br/>value = [15287, 4219]<br/>class = No Disease>, fillcolor="#eca470"] ;
187 -> 188 ;
189 [label=<Stroke &le; 1.367<br/>entropy = 0.701<br/>samples = 17576<br/>value = [14240, 3336]<br/>class = No Disease>, fillcolor="#eb9f67"] ;
188 -> 189 ;
190 [label=<GenHlth_2 &le; 0.402<br/>entropy = 0.677<br/>samples = 17138<br/>value = [14079, 3059]<br/>class = No Disease>, fillcolor="#eb9c64"] ;
189 -> 190 ;
191 [label=<Age_10 &le; 1.132<br/>entropy = 0.582<br/>samples = 11534<br/>value = [9929, 1605]<br/>class = No Disease>, fillcolor="#e99559"] ;
190 -> 191 ;
192 [label=<GenHlth_4 &le; 1.307<br/>entropy = 0.522<br/>samples = 10108<br/>value = [8922, 1186]<br/>class = No Disease>, fillcolor="#e89253"] ;
191 -> 192 ;
193 [label=<entropy = 0.494<br/>samples = 9857<br/>value = [8792, 1065]<br/>class = No Disease>, fillcolor="#e89051"] ;
192 -> 193 ;
194 [label=<entropy = 0.999<br/>samples = 251<br/>value = [130, 121]<br/>class = No Disease>, fillcolor="#fdf6f1"] ;
192 -> 194 ;
195 [label=<GenHlth_4 &le; 1.307<br/>entropy = 0.874<br/>samples = 1426<br/>value = [1007, 419]<br/>class = No Disease>, fillcolor="#f0b58b"] ;
191 -> 195 ;
196 [label=<entropy = 0.85<br/>samples = 1377<br/>value = [997, 380]<br/>class = No Disease>, fillcolor="#efb184"] ;
195 -> 196 ;
197 [label=<entropy = 0.73<br/>samples = 49<br/>value = [10, 39]<br/>class = Disease>, fillcolor="#6cb6ec"] ;
195 -> 197 ;
198 [label=<Age_11 &le; 1.4<br/>entropy = 0.826<br/>samples = 5604<br/>value = [4150, 1454]<br/>class = No Disease>, fillcolor="#eead7e"] ;
190 -> 198 ;
199 [label=<Age_10 &le; 1.132<br/>entropy = 0.79<br/>samples = 5172<br/>value = [3946, 1226]<br/>class = No Disease>, fillcolor="#eda877"] ;
198 -> 199 ;
200 [label=<entropy = 0.748<br/>samples = 4555<br/>value = [3582, 973]<br/>class = No Disease>, fillcolor="#eca36f"] ;
199 -> 200 ;
201 [label=<entropy = 0.977<br/>samples = 617<br/>value = [364, 253]<br/>class = No Disease>, fillcolor="#f7d9c3"] ;
199 -> 201 ;
202 [label=<NoDocbcCost &le; 1.372<br/>entropy = 0.998<br/>samples = 432<br/>value = [204, 228]<br/>class = Disease>, fillcolor="#eaf5fc"] ;
198 -> 202 ;
203 [label=<entropy = 1.0<br/>samples = 405<br/>value = [203, 202]<br/>class = No Disease>, fillcolor="#fffefe"] ;
202 -> 203 ;
204 [label=<entropy = 0.229<br/>samples = 27<br/>value = [1, 26]<br/>class = Disease>, fillcolor="#41a1e6"] ;
202 -> 204 ;
205 [label=<Smoker &le; -0.044<br/>entropy = 0.949<br/>samples = 438<br/>value = [161, 277]<br/>class = Disease>, fillcolor="#acd6f4"] ;
189 -> 205 ;
206 [label=<MentHlth &le; -0.042<br/>entropy = 0.989<br/>samples = 151<br/>value = [85, 66]<br/>class = No Disease>, fillcolor="#f9e3d3"] ;
205 -> 206 ;
207 [label=<HvyAlcoholConsump &le; 2.154<br/>entropy = 0.999<br/>samples = 128<br/>value = [62, 66]<br/>class = Disease>, fillcolor="#f3f9fd"] ;
206 -> 207 ;
208 [label=<entropy = 0.997<br/>samples = 124<br/>value = [58, 66]<br/>class = Disease>, fillcolor="#e7f3fc"] ;
207 -> 208 ;
209 [label=<entropy = 0.0<br/>samples = 4<br/>value = [4, 0]<br/>class = No Disease>, fillcolor="#e58139"] ;
207 -> 209 ;
210 [label=<entropy = 0.0<br/>samples = 23<br/>value = [23, 0]<br/>class = No Disease>, fillcolor="#e58139"] ;
206 -> 210 ;
211 [label=<Diabetes_0 &le; -0.587<br/>entropy = 0.834<br/>samples = 287<br/>value = [76, 211]<br/>class = Disease>, fillcolor="#80c0ee"] ;
205 -> 211 ;
212 [label=<Age_11 &le; 1.4<br/>entropy = 0.432<br/>samples = 79<br/>value = [7, 72]<br/>class = Disease>, fillcolor="#4ca7e8"] ;
211 -> 212 ;
213 [label=<entropy = 0.347<br/>samples = 77<br/>value = [5, 72]<br/>class = Disease>, fillcolor="#47a4e7"] ;
212 -> 213 ;
214 [label=<entropy = 0.0<br/>samples = 2<br/>value = [2, 0]<br/>class = No Disease>, fillcolor="#e58139"] ;
212 -> 214 ;
215 [label=<GenHlth_4 &le; 1.307<br/>entropy = 0.917<br/>samples = 208<br/>value = [69, 139]<br/>class = Disease>, fillcolor="#9bcef2"] ;
211 -> 215 ;
216 [label=<entropy = 0.977<br/>samples = 156<br/>value = [64, 92]<br/>class = Disease>, fillcolor="#c3e1f7"] ;
215 -> 216 ;
217 [label=<entropy = 0.457<br/>samples = 52<br/>value = [5, 47]<br/>class = Disease>, fillcolor="#4ea7e8"] ;
215 -> 217 ;
218 [label=<Smoker &le; -0.044<br/>entropy = 0.995<br/>samples = 1930<br/>value = [1047, 883]<br/>class = No Disease>, fillcolor="#fbebe0"] ;
188 -> 218 ;
219 [label=<PhysHlth &le; -0.374<br/>entropy = 0.948<br/>samples = 872<br/>value = [552, 320]<br/>class = No Disease>, fillcolor="#f4caac"] ;
218 -> 219 ;
220 [label=<Age_10 &le; 1.132<br/>entropy = 0.65<br/>samples = 294<br/>value = [245, 49]<br/>class = No Disease>, fillcolor="#ea9a61"] ;
219 -> 220 ;
221 [label=<Veggies &le; -0.711<br/>entropy = 0.546<br/>samples = 262<br/>value = [229, 33]<br/>class = No Disease>, fillcolor="#e99356"] ;
220 -> 221 ;
222 [label=<entropy = 0.0<br/>samples = 58<br/>value = [58, 0]<br/>class = No Disease>, fillcolor="#e58139"] ;
221 -> 222 ;
223 [label=<entropy = 0.639<br/>samples = 204<br/>value = [171, 33]<br/>class = No Disease>, fillcolor="#ea995f"] ;
221 -> 223 ;
224 [label=<PhysActivity &le; -0.448<br/>entropy = 1.0<br/>samples = 32<br/>value = [16, 16]<br/>class = No Disease>, fillcolor="#ffffff"] ;
220 -> 224 ;
225 [label=<entropy = 0.918<br/>samples = 24<br/>value = [8, 16]<br/>class = Disease>, fillcolor="#9ccef2"] ;
224 -> 225 ;
226 [label=<entropy = 0.0<br/>samples = 8<br/>value = [8, 0]<br/>class = No Disease>, fillcolor="#e58139"] ;
224 -> 226 ;
227 [label=<Diabetes_2 &le; 0.66<br/>entropy = 0.997<br/>samples = 578<br/>value = [307, 271]<br/>class = No Disease>, fillcolor="#fcf0e8"] ;
219 -> 227 ;
228 [label=<Age_5 &le; 1.923<br/>entropy = 0.976<br/>samples = 413<br/>value = [244, 169]<br/>class = No Disease>, fillcolor="#f7d8c2"] ;
227 -> 228 ;
229 [label=<entropy = 0.99<br/>samples = 382<br/>value = [213, 169]<br/>class = No Disease>, fillcolor="#fae5d6"] ;
228 -> 229 ;
230 [label=<entropy = 0.0<br/>samples = 31<br/>value = [31, 0]<br/>class = No Disease>, fillcolor="#e58139"] ;
228 -> 230 ;
231 [label=<Age_7 &le; 1.254<br/>entropy = 0.959<br/>samples = 165<br/>value = [63, 102]<br/>class = Disease>, fillcolor="#b3daf5"] ;
227 -> 231 ;
232 [label=<entropy = 0.923<br/>samples = 154<br/>value = [52, 102]<br/>class = Disease>, fillcolor="#9ecff2"] ;
231 -> 232 ;
233 [label=<entropy = 0.0<br/>samples = 11<br/>value = [11, 0]<br/>class = No Disease>, fillcolor="#e58139"] ;
231 -> 233 ;
234 [label=<Age_4 &le; 2.286<br/>entropy = 0.997<br/>samples = 1058<br/>value = [495, 563]<br/>class = Disease>, fillcolor="#e7f3fc"] ;
218 -> 234 ;
235 [label=<Diabetes_2 &le; 0.66<br/>entropy = 0.992<br/>samples = 1017<br/>value = [454, 563]<br/>class = Disease>, fillcolor="#d9ecfa"] ;
234 -> 235 ;
236 [label=<Diabetes_1 &le; 3.223<br/>entropy = 1.0<br/>samples = 762<br/>value = [379, 383]<br/>class = Disease>, fillcolor="#fdfeff"] ;
235 -> 236 ;
237 [label=<entropy = 0.999<br/>samples = 744<br/>value = [361, 383]<br/>class = Disease>, fillcolor="#f4f9fe"] ;
236 -> 237 ;
238 [label=<entropy = 0.0<br/>samples = 18<br/>value = [18, 0]<br/>class = No Disease>, fillcolor="#e58139"] ;
236 -> 238 ;
239 [label=<Age_3 &le; 2.586<br/>entropy = 0.874<br/>samples = 255<br/>value = [75, 180]<br/>class = Disease>, fillcolor="#8bc6f0"] ;
235 -> 239 ;
240 [label=<entropy = 0.863<br/>samples = 252<br/>value = [72, 180]<br/>class = Disease>, fillcolor="#88c4ef"] ;
239 -> 240 ;
241 [label=<entropy = 0.0<br/>samples = 3<br/>value = [3, 0]<br/>class = No Disease>, fillcolor="#e58139"] ;
239 -> 241 ;
242 [label=<entropy = 0.0<br/>samples = 41<br/>value = [41, 0]<br/>class = No Disease>, fillcolor="#e58139"] ;
234 -> 242 ;
243 [label=<GenHlth_3 &le; 0.772<br/>entropy = 0.985<br/>samples = 1502<br/>value = [642, 860]<br/>class = Disease>, fillcolor="#cde6f8"] ;
187 -> 243 ;
244 [label=<GenHlth_2 &le; 0.402<br/>entropy = 0.998<br/>samples = 1243<br/>value = [587, 656]<br/>class = Disease>, fillcolor="#eaf5fc"] ;
243 -> 244 ;
245 [label=<PhysHlth &le; -0.469<br/>entropy = 0.991<br/>samples = 720<br/>value = [400, 320]<br/>class = No Disease>, fillcolor="#fae6d7"] ;
244 -> 245 ;
246 [label=<Diabetes_0 &le; -0.587<br/>entropy = 0.962<br/>samples = 531<br/>value = [326, 205]<br/>class = No Disease>, fillcolor="#f5d0b6"] ;
245 -> 246 ;
247 [label=<entropy = 0.0<br/>samples = 18<br/>value = [18, 0]<br/>class = No Disease>, fillcolor="#e58139"] ;
246 -> 247 ;
248 [label=<CholCheck &le; -2.996<br/>entropy = 0.971<br/>samples = 513<br/>value = [308, 205]<br/>class = No Disease>, fillcolor="#f6d5bd"] ;
246 -> 248 ;
249 [label=<entropy = 0.0<br/>samples = 10<br/>value = [10, 0]<br/>class = No Disease>, fillcolor="#e58139"] ;
248 -> 249 ;
250 [label=<entropy = 0.975<br/>samples = 503<br/>value = [298, 205]<br/>class = No Disease>, fillcolor="#f7d8c1"] ;
248 -> 250 ;
251 [label=<GenHlth_0 &le; 1.186<br/>entropy = 0.966<br/>samples = 189<br/>value = [74, 115]<br/>class = Disease>, fillcolor="#b8dcf6"] ;
245 -> 251 ;
252 [label=<HvyAlcoholConsump &le; 2.154<br/>entropy = 0.944<br/>samples = 180<br/>value = [65, 115]<br/>class = Disease>, fillcolor="#a9d4f4"] ;
251 -> 252 ;
253 [label=<entropy = 0.931<br/>samples = 176<br/>value = [61, 115]<br/>class = Disease>, fillcolor="#a2d1f3"] ;
252 -> 253 ;
254 [label=<entropy = 0.0<br/>samples = 4<br/>value = [4, 0]<br/>class = No Disease>, fillcolor="#e58139"] ;
252 -> 254 ;
255 [label=<entropy = 0.0<br/>samples = 9<br/>value = [9, 0]<br/>class = No Disease>, fillcolor="#e58139"] ;
251 -> 255 ;
256 [label=<MentHlth &le; 0.863<br/>entropy = 0.941<br/>samples = 523<br/>value = [187, 336]<br/>class = Disease>, fillcolor="#a7d4f3"] ;
244 -> 256 ;
257 [label=<PhysHlth &le; 1.524<br/>entropy = 0.93<br/>samples = 513<br/>value = [177, 336]<br/>class = Disease>, fillcolor="#a1d1f3"] ;
256 -> 257 ;
258 [label=<Stroke &le; 1.367<br/>entropy = 0.92<br/>samples = 505<br/>value = [169, 336]<br/>class = Disease>, fillcolor="#9dcef2"] ;
257 -> 258 ;
259 [label=<entropy = 0.939<br/>samples = 461<br/>value = [164, 297]<br/>class = Disease>, fillcolor="#a6d3f3"] ;
258 -> 259 ;
260 [label=<entropy = 0.511<br/>samples = 44<br/>value = [5, 39]<br/>class = Disease>, fillcolor="#52aae8"] ;
258 -> 260 ;
261 [label=<entropy = 0.0<br/>samples = 8<br/>value = [8, 0]<br/>class = No Disease>, fillcolor="#e58139"] ;
257 -> 261 ;
262 [label=<entropy = 0.0<br/>samples = 10<br/>value = [10, 0]<br/>class = No Disease>, fillcolor="#e58139"] ;
256 -> 262 ;
263 [label=<MentHlth &le; 2.553<br/>entropy = 0.746<br/>samples = 259<br/>value = [55, 204]<br/>class = Disease>, fillcolor="#6eb7ec"] ;
243 -> 263 ;
264 [label=<MentHlth &le; -0.162<br/>entropy = 0.716<br/>samples = 254<br/>value = [50, 204]<br/>class = Disease>, fillcolor="#6ab5eb"] ;
263 -> 264 ;
265 [label=<PhysActivity &le; -0.448<br/>entropy = 0.784<br/>samples = 214<br/>value = [50, 164]<br/>class = Disease>, fillcolor="#75bbed"] ;
264 -> 265 ;
266 [label=<MentHlth &le; -0.343<br/>entropy = 0.589<br/>samples = 120<br/>value = [17, 103]<br/>class = Disease>, fillcolor="#5aade9"] ;
265 -> 266 ;
267 [label=<entropy = 0.549<br/>samples = 118<br/>value = [15, 103]<br/>class = Disease>, fillcolor="#56abe9"] ;
266 -> 267 ;
268 [label=<entropy = 0.0<br/>samples = 2<br/>value = [2, 0]<br/>class = No Disease>, fillcolor="#e58139"] ;
266 -> 268 ;
269 [label=<Diabetes_1 &le; 3.223<br/>entropy = 0.935<br/>samples = 94<br/>value = [33, 61]<br/>class = Disease>, fillcolor="#a4d2f3"] ;
265 -> 269 ;
270 [label=<entropy = 0.978<br/>samples = 80<br/>value = [33, 47]<br/>class = Disease>, fillcolor="#c4e2f7"] ;
269 -> 270 ;
271 [label=<entropy = 0.0<br/>samples = 14<br/>value = [0, 14]<br/>class = Disease>, fillcolor="#399de5"] ;
269 -> 271 ;
272 [label=<entropy = 0.0<br/>samples = 40<br/>value = [0, 40]<br/>class = Disease>, fillcolor="#399de5"] ;
264 -> 272 ;
273 [label=<entropy = 0.0<br/>samples = 5<br/>value = [5, 0]<br/>class = No Disease>, fillcolor="#e58139"] ;
263 -> 273 ;
274 [label=<GenHlth_0 &le; 1.186<br/>entropy = 0.999<br/>samples = 23313<br/>value = [12125, 11188]<br/>class = No Disease>, fillcolor="#fdf5f0"] ;
186 -> 274 ;
275 [label=<GenHlth_1 &le; 0.515<br/>entropy = 0.999<br/>samples = 19889<br/>value = [9595, 10294]<br/>class = Disease>, fillcolor="#f2f8fd"] ;
274 -> 275 ;
276 [label=<Age_5 &le; 1.923<br/>entropy = 0.961<br/>samples = 11284<br/>value = [4339, 6945]<br/>class = Disease>, fillcolor="#b5daf5"] ;
275 -> 276 ;
277 [label=<Age_3 &le; 2.586<br/>entropy = 0.942<br/>samples = 10624<br/>value = [3821, 6803]<br/>class = Disease>, fillcolor="#a8d4f4"] ;
276 -> 277 ;
278 [label=<Age_4 &le; 2.286<br/>entropy = 0.93<br/>samples = 10328<br/>value = [3568, 6760]<br/>class = Disease>, fillcolor="#a2d1f3"] ;
277 -> 278 ;
279 [label=<Age_2 &le; 2.959<br/>entropy = 0.911<br/>samples = 9858<br/>value = [3218, 6640]<br/>class = Disease>, fillcolor="#99ccf2"] ;
278 -> 279 ;
280 [label=<entropy = 0.899<br/>samples = 9689<br/>value = [3057, 6632]<br/>class = Disease>, fillcolor="#94caf1"] ;
279 -> 280 ;
281 [label=<entropy = 0.275<br/>samples = 169<br/>value = [161, 8]<br/>class = No Disease>, fillcolor="#e68743"] ;
279 -> 281 ;
282 [label=<NoDocbcCost &le; 1.372<br/>entropy = 0.82<br/>samples = 470<br/>value = [350, 120]<br/>class = No Disease>, fillcolor="#eeac7d"] ;
278 -> 282 ;
283 [label=<entropy = 0.732<br/>samples = 400<br/>value = [318, 82]<br/>class = No Disease>, fillcolor="#eca16c"] ;
282 -> 283 ;
284 [label=<entropy = 0.995<br/>samples = 70<br/>value = [32, 38]<br/>class = Disease>, fillcolor="#e0f0fb"] ;
282 -> 284 ;
285 [label=<PhysHlth &le; -0.184<br/>entropy = 0.598<br/>samples = 296<br/>value = [253, 43]<br/>class = No Disease>, fillcolor="#e9965b"] ;
277 -> 285 ;
286 [label=<Diabetes_2 &le; 0.66<br/>entropy = 0.404<br/>samples = 248<br/>value = [228, 20]<br/>class = No Disease>, fillcolor="#e78c4a"] ;
285 -> 286 ;
287 [label=<entropy = 0.158<br/>samples = 218<br/>value = [213, 5]<br/>class = No Disease>, fillcolor="#e6843e"] ;
286 -> 287 ;
288 [label=<entropy = 1.0<br/>samples = 30<br/>value = [15, 15]<br/>class = No Disease>, fillcolor="#ffffff"] ;
286 -> 288 ;
289 [label=<NoDocbcCost &le; 1.372<br/>entropy = 0.999<br/>samples = 48<br/>value = [25, 23]<br/>class = No Disease>, fillcolor="#fdf5ef"] ;
285 -> 289 ;
290 [label=<entropy = 0.826<br/>samples = 27<br/>value = [20, 7]<br/>class = No Disease>, fillcolor="#eead7e"] ;
289 -> 290 ;
291 [label=<entropy = 0.792<br/>samples = 21<br/>value = [5, 16]<br/>class = Disease>, fillcolor="#77bced"] ;
289 -> 291 ;
292 [label=<GenHlth_2 &le; 0.402<br/>entropy = 0.751<br/>samples = 660<br/>value = [518, 142]<br/>class = No Disease>, fillcolor="#eca46f"] ;
276 -> 292 ;
293 [label=<MentHlth &le; 0.26<br/>entropy = 0.984<br/>samples = 143<br/>value = [82, 61]<br/>class = No Disease>, fillcolor="#f8dfcc"] ;
292 -> 293 ;
294 [label=<Veggies &le; -0.711<br/>entropy = 1.0<br/>samples = 125<br/>value = [64, 61]<br/>class = No Disease>, fillcolor="#fef9f6"] ;
293 -> 294 ;
295 [label=<entropy = 0.89<br/>samples = 52<br/>value = [16, 36]<br/>class = Disease>, fillcolor="#91c9f1"] ;
294 -> 295 ;
296 [label=<entropy = 0.927<br/>samples = 73<br/>value = [48, 25]<br/>class = No Disease>, fillcolor="#f3c3a0"] ;
294 -> 296 ;
297 [label=<entropy = 0.0<br/>samples = 18<br/>value = [18, 0]<br/>class = No Disease>, fillcolor="#e58139"] ;
293 -> 297 ;
298 [label=<Stroke &le; 1.367<br/>entropy = 0.626<br/>samples = 517<br/>value = [436, 81]<br/>class = No Disease>, fillcolor="#ea985e"] ;
292 -> 298 ;
299 [label=<PhysHlth &le; -0.469<br/>entropy = 0.54<br/>samples = 493<br/>value = [432, 61]<br/>class = No Disease>, fillcolor="#e99355"] ;
298 -> 299 ;
300 [label=<entropy = 0.647<br/>samples = 369<br/>value = [308, 61]<br/>class = No Disease>, fillcolor="#ea9a60"] ;
299 -> 300 ;
301 [label=<entropy = 0.0<br/>samples = 124<br/>value = [124, 0]<br/>class = No Disease>, fillcolor="#e58139"] ;
299 -> 301 ;
302 [label=<PhysActivity &le; -0.448<br/>entropy = 0.65<br/>samples = 24<br/>value = [4, 20]<br/>class = Disease>, fillcolor="#61b1ea"] ;
298 -> 302 ;
303 [label=<entropy = 0.0<br/>samples = 15<br/>value = [0, 15]<br/>class = Disease>, fillcolor="#399de5"] ;
302 -> 303 ;
304 [label=<entropy = 0.991<br/>samples = 9<br/>value = [4, 5]<br/>class = Disease>, fillcolor="#d7ebfa"] ;
302 -> 304 ;
305 [label=<Age_11 &le; 1.4<br/>entropy = 0.964<br/>samples = 8605<br/>value = [5256, 3349]<br/>class = No Disease>, fillcolor="#f6d1b7"] ;
275 -> 305 ;
306 [label=<Age_12 &le; 1.199<br/>entropy = 0.943<br/>samples = 7923<br/>value = [5069, 2854]<br/>class = No Disease>, fillcolor="#f4c8a8"] ;
305 -> 306 ;
307 [label=<Age_10 &le; 1.132<br/>entropy = 0.92<br/>samples = 7436<br/>value = [4941, 2495]<br/>class = No Disease>, fillcolor="#f2c19d"] ;
306 -> 307 ;
308 [label=<Age_9 &le; 0.984<br/>entropy = 0.876<br/>samples = 6434<br/>value = [4531, 1903]<br/>class = No Disease>, fillcolor="#f0b68c"] ;
307 -> 308 ;
309 [label=<entropy = 0.778<br/>samples = 4987<br/>value = [3841, 1146]<br/>class = No Disease>, fillcolor="#eda774"] ;
308 -> 309 ;
310 [label=<entropy = 0.998<br/>samples = 1447<br/>value = [690, 757]<br/>class = Disease>, fillcolor="#edf6fd"] ;
308 -> 310 ;
311 [label=<MentHlth &le; 2.251<br/>entropy = 0.976<br/>samples = 1002<br/>value = [410, 592]<br/>class = Disease>, fillcolor="#c2e1f7"] ;
307 -> 311 ;
312 [label=<entropy = 0.98<br/>samples = 983<br/>value = [410, 573]<br/>class = Disease>, fillcolor="#c7e3f8"] ;
311 -> 312 ;
313 [label=<entropy = 0.0<br/>samples = 19<br/>value = [0, 19]<br/>class = Disease>, fillcolor="#399de5"] ;
311 -> 313 ;
314 [label=<Diabetes_0 &le; -0.587<br/>entropy = 0.831<br/>samples = 487<br/>value = [128, 359]<br/>class = Disease>, fillcolor="#80c0ee"] ;
306 -> 314 ;
315 [label=<Veggies &le; -0.711<br/>entropy = 0.564<br/>samples = 121<br/>value = [16, 105]<br/>class = Disease>, fillcolor="#57ace9"] ;
314 -> 315 ;
316 [label=<entropy = 0.0<br/>samples = 4<br/>value = [4, 0]<br/>class = No Disease>, fillcolor="#e58139"] ;
315 -> 316 ;
317 [label=<entropy = 0.477<br/>samples = 117<br/>value = [12, 105]<br/>class = Disease>, fillcolor="#50a8e8"] ;
315 -> 317 ;
318 [label=<PhysHlth &le; -0.564<br/>entropy = 0.889<br/>samples = 366<br/>value = [112, 254]<br/>class = Disease>, fillcolor="#90c8f0"] ;
314 -> 318 ;
319 [label=<entropy = 0.934<br/>samples = 254<br/>value = [89, 165]<br/>class = Disease>, fillcolor="#a4d2f3"] ;
318 -> 319 ;
320 [label=<entropy = 0.733<br/>samples = 112<br/>value = [23, 89]<br/>class = Disease>, fillcolor="#6cb6ec"] ;
318 -> 320 ;
321 [label=<MentHlth &le; -0.042<br/>entropy = 0.847<br/>samples = 682<br/>value = [187, 495]<br/>class = Disease>, fillcolor="#84c2ef"] ;
305 -> 321 ;
322 [label=<HvyAlcoholConsump &le; 2.154<br/>entropy = 0.825<br/>samples = 668<br/>value = [173, 495]<br/>class = Disease>, fillcolor="#7ebfee"] ;
321 -> 322 ;
323 [label=<Smoker &le; -0.044<br/>entropy = 0.808<br/>samples = 658<br/>value = [163, 495]<br/>class = Disease>, fillcolor="#7abdee"] ;
322 -> 323 ;
324 [label=<entropy = 0.894<br/>samples = 235<br/>value = [73, 162]<br/>class = Disease>, fillcolor="#92c9f1"] ;
323 -> 324 ;
325 [label=<entropy = 0.747<br/>samples = 423<br/>value = [90, 333]<br/>class = Disease>, fillcolor="#6fb7ec"] ;
323 -> 325 ;
326 [label=<entropy = 0.0<br/>samples = 10<br/>value = [10, 0]<br/>class = No Disease>, fillcolor="#e58139"] ;
322 -> 326 ;
327 [label=<entropy = 0.0<br/>samples = 14<br/>value = [14, 0]<br/>class = No Disease>, fillcolor="#e58139"] ;
321 -> 327 ;
328 [label=<Age_12 &le; 1.199<br/>entropy = 0.828<br/>samples = 3424<br/>value = [2530, 894]<br/>class = No Disease>, fillcolor="#eeae7f"] ;
274 -> 328 ;
329 [label=<Diabetes_2 &le; 0.66<br/>entropy = 0.791<br/>samples = 3206<br/>value = [2444, 762]<br/>class = No Disease>, fillcolor="#eda877"] ;
328 -> 329 ;
330 [label=<Age_11 &le; 1.4<br/>entropy = 0.752<br/>samples = 3048<br/>value = [2391, 657]<br/>class = No Disease>, fillcolor="#eca46f"] ;
329 -> 330 ;
331 [label=<Age_10 &le; 1.132<br/>entropy = 0.702<br/>samples = 2823<br/>value = [2286, 537]<br/>class = No Disease>, fillcolor="#eb9f68"] ;
330 -> 331 ;
332 [label=<Age_9 &le; 0.984<br/>entropy = 0.641<br/>samples = 2474<br/>value = [2071, 403]<br/>class = No Disease>, fillcolor="#ea9a60"] ;
331 -> 332 ;
333 [label=<entropy = 0.535<br/>samples = 1935<br/>value = [1699, 236]<br/>class = No Disease>, fillcolor="#e99355"] ;
332 -> 333 ;
334 [label=<entropy = 0.893<br/>samples = 539<br/>value = [372, 167]<br/>class = No Disease>, fillcolor="#f1ba92"] ;
332 -> 334 ;
335 [label=<HvyAlcoholConsump &le; 2.154<br/>entropy = 0.961<br/>samples = 349<br/>value = [215, 134]<br/>class = No Disease>, fillcolor="#f5d0b4"] ;
331 -> 335 ;
336 [label=<entropy = 0.939<br/>samples = 321<br/>value = [207, 114]<br/>class = No Disease>, fillcolor="#f3c6a6"] ;
335 -> 336 ;
337 [label=<entropy = 0.863<br/>samples = 28<br/>value = [8, 20]<br/>class = Disease>, fillcolor="#88c4ef"] ;
335 -> 337 ;
338 [label=<PhysHlth &le; 0.148<br/>entropy = 0.997<br/>samples = 225<br/>value = [105, 120]<br/>class = Disease>, fillcolor="#e6f3fc"] ;
330 -> 338 ;
339 [label=<PhysHlth &le; -0.374<br/>entropy = 0.996<br/>samples = 193<br/>value = [104, 89]<br/>class = No Disease>, fillcolor="#fbede2"] ;
338 -> 339 ;
340 [label=<entropy = 0.999<br/>samples = 186<br/>value = [97, 89]<br/>class = No Disease>, fillcolor="#fdf5ef"] ;
339 -> 340 ;
341 [label=<entropy = 0.0<br/>samples = 7<br/>value = [7, 0]<br/>class = No Disease>, fillcolor="#e58139"] ;
339 -> 341 ;
342 [label=<PhysActivity &le; -0.448<br/>entropy = 0.201<br/>samples = 32<br/>value = [1, 31]<br/>class = Disease>, fillcolor="#3fa0e6"] ;
338 -> 342 ;
343 [label=<entropy = 0.0<br/>samples = 25<br/>value = [0, 25]<br/>class = Disease>, fillcolor="#399de5"] ;
342 -> 343 ;
344 [label=<entropy = 0.592<br/>samples = 7<br/>value = [1, 6]<br/>class = Disease>, fillcolor="#5aade9"] ;
342 -> 344 ;
345 [label=<Age_10 &le; 1.132<br/>entropy = 0.92<br/>samples = 158<br/>value = [53, 105]<br/>class = Disease>, fillcolor="#9dcef2"] ;
329 -> 345 ;
346 [label=<AnyHealthcare &le; -2.242<br/>entropy = 0.99<br/>samples = 86<br/>value = [48, 38]<br/>class = No Disease>, fillcolor="#fae5d6"] ;
345 -> 346 ;
347 [label=<entropy = 0.0<br/>samples = 15<br/>value = [0, 15]<br/>class = Disease>, fillcolor="#399de5"] ;
346 -> 347 ;
348 [label=<Veggies &le; -0.711<br/>entropy = 0.909<br/>samples = 71<br/>value = [48, 23]<br/>class = No Disease>, fillcolor="#f1bd98"] ;
346 -> 348 ;
349 [label=<entropy = 0.954<br/>samples = 24<br/>value = [9, 15]<br/>class = Disease>, fillcolor="#b0d8f5"] ;
348 -> 349 ;
350 [label=<entropy = 0.658<br/>samples = 47<br/>value = [39, 8]<br/>class = No Disease>, fillcolor="#ea9b62"] ;
348 -> 350 ;
351 [label=<PhysActivity &le; -0.448<br/>entropy = 0.364<br/>samples = 72<br/>value = [5, 67]<br/>class = Disease>, fillcolor="#48a4e7"] ;
345 -> 351 ;
352 [label=<entropy = 0.0<br/>samples = 11<br/>value = [0, 11]<br/>class = Disease>, fillcolor="#399de5"] ;
351 -> 352 ;
353 [label=<MentHlth &le; 1.648<br/>entropy = 0.409<br/>samples = 61<br/>value = [5, 56]<br/>class = Disease>, fillcolor="#4ba6e7"] ;
351 -> 353 ;
354 [label=<entropy = 0.457<br/>samples = 52<br/>value = [5, 47]<br/>class = Disease>, fillcolor="#4ea7e8"] ;
353 -> 354 ;
355 [label=<entropy = 0.0<br/>samples = 9<br/>value = [0, 9]<br/>class = Disease>, fillcolor="#399de5"] ;
353 -> 355 ;
356 [label=<MentHlth &le; -0.042<br/>entropy = 0.968<br/>samples = 218<br/>value = [86, 132]<br/>class = Disease>, fillcolor="#baddf6"] ;
328 -> 356 ;
357 [label=<Fruits &le; -0.249<br/>entropy = 0.996<br/>samples = 179<br/>value = [83, 96]<br/>class = Disease>, fillcolor="#e4f2fb"] ;
356 -> 357 ;
358 [label=<Diabetes_0 &le; -0.587<br/>entropy = 0.858<br/>samples = 71<br/>value = [20, 51]<br/>class = Disease>, fillcolor="#87c3ef"] ;
357 -> 358 ;
359 [label=<entropy = 0.0<br/>samples = 3<br/>value = [3, 0]<br/>class = No Disease>, fillcolor="#e58139"] ;
358 -> 359 ;
360 [label=<HvyAlcoholConsump &le; 2.154<br/>entropy = 0.811<br/>samples = 68<br/>value = [17, 51]<br/>class = Disease>, fillcolor="#7bbeee"] ;
358 -> 360 ;
361 [label=<entropy = 0.773<br/>samples = 66<br/>value = [15, 51]<br/>class = Disease>, fillcolor="#73baed"] ;
360 -> 361 ;
362 [label=<entropy = 0.0<br/>samples = 2<br/>value = [2, 0]<br/>class = No Disease>, fillcolor="#e58139"] ;
360 -> 362 ;
363 [label=<PhysHlth &le; 1.144<br/>entropy = 0.98<br/>samples = 108<br/>value = [63, 45]<br/>class = No Disease>, fillcolor="#f8dbc6"] ;
357 -> 363 ;
364 [label=<Smoker &le; -0.044<br/>entropy = 0.96<br/>samples = 102<br/>value = [63, 39]<br/>class = No Disease>, fillcolor="#f5cfb4"] ;
363 -> 364 ;
365 [label=<entropy = 0.669<br/>samples = 40<br/>value = [33, 7]<br/>class = No Disease>, fillcolor="#eb9c63"] ;
364 -> 365 ;
366 [label=<entropy = 0.999<br/>samples = 62<br/>value = [30, 32]<br/>class = Disease>, fillcolor="#f3f9fd"] ;
364 -> 366 ;
367 [label=<entropy = 0.0<br/>samples = 6<br/>value = [0, 6]<br/>class = Disease>, fillcolor="#399de5"] ;
363 -> 367 ;
368 [label=<PhysActivity &le; -0.448<br/>entropy = 0.391<br/>samples = 39<br/>value = [3, 36]<br/>class = Disease>, fillcolor="#49a5e7"] ;
356 -> 368 ;
369 [label=<entropy = 0.0<br/>samples = 2<br/>value = [2, 0]<br/>class = No Disease>, fillcolor="#e58139"] ;
368 -> 369 ;
370 [label=<MentHlth &le; 1.044<br/>entropy = 0.179<br/>samples = 37<br/>value = [1, 36]<br/>class = Disease>, fillcolor="#3ea0e6"] ;
368 -> 370 ;
371 [label=<entropy = 0.0<br/>samples = 31<br/>value = [0, 31]<br/>class = Disease>, fillcolor="#399de5"] ;
370 -> 371 ;
372 [label=<Fruits &le; -0.249<br/>entropy = 0.65<br/>samples = 6<br/>value = [1, 5]<br/>class = Disease>, fillcolor="#61b1ea"] ;
370 -> 372 ;
373 [label=<entropy = 0.0<br/>samples = 1<br/>value = [1, 0]<br/>class = No Disease>, fillcolor="#e58139"] ;
372 -> 373 ;
374 [label=<entropy = 0.0<br/>samples = 5<br/>value = [0, 5]<br/>class = Disease>, fillcolor="#399de5"] ;
372 -> 374 ;
375 [label=<Stroke &le; 1.367<br/>entropy = 0.97<br/>samples = 24074<br/>value = [9590, 14484]<br/>class = Disease>, fillcolor="#bcdef6"] ;
1 -> 375 ;
376 [label=<Sex &le; -0.001<br/>entropy = 0.988<br/>samples = 20799<br/>value = [9034, 11765]<br/>class = Disease>, fillcolor="#d1e8f9"] ;
375 -> 376 ;
377 [label=<GenHlth_4 &le; 1.307<br/>entropy = 1.0<br/>samples = 12319<br/>value = [6150, 6169]<br/>class = Disease>, fillcolor="#feffff"] ;
376 -> 377 ;
378 [label=<HighChol &le; -0.097<br/>entropy = 0.994<br/>samples = 9548<br/>value = [5225, 4323]<br/>class = No Disease>, fillcolor="#fbe9dd"] ;
377 -> 378 ;
379 [label=<Age_12 &le; 1.199<br/>entropy = 0.943<br/>samples = 4975<br/>value = [3184, 1791]<br/>class = No Disease>, fillcolor="#f4c8a8"] ;
378 -> 379 ;
380 [label=<GenHlth_3 &le; 0.772<br/>entropy = 0.905<br/>samples = 4167<br/>value = [2833, 1334]<br/>class = No Disease>, fillcolor="#f1bc96"] ;
379 -> 380 ;
381 [label=<Age_11 &le; 1.4<br/>entropy = 0.821<br/>samples = 2445<br/>value = [1818, 627]<br/>class = No Disease>, fillcolor="#eeac7d"] ;
380 -> 381 ;
382 [label=<GenHlth_2 &le; 0.402<br/>entropy = 0.776<br/>samples = 2157<br/>value = [1663, 494]<br/>class = No Disease>, fillcolor="#eda674"] ;
381 -> 382 ;
383 [label=<entropy = 0.501<br/>samples = 734<br/>value = [653, 81]<br/>class = No Disease>, fillcolor="#e89152"] ;
382 -> 383 ;
384 [label=<entropy = 0.869<br/>samples = 1423<br/>value = [1010, 413]<br/>class = No Disease>, fillcolor="#f0b58a"] ;
382 -> 384 ;
385 [label=<Veggies &le; -0.711<br/>entropy = 0.996<br/>samples = 288<br/>value = [155, 133]<br/>class = No Disease>, fillcolor="#fbede3"] ;
381 -> 385 ;
386 [label=<entropy = 0.811<br/>samples = 36<br/>value = [27, 9]<br/>class = No Disease>, fillcolor="#eeab7b"] ;
385 -> 386 ;
387 [label=<entropy = 1.0<br/>samples = 252<br/>value = [128, 124]<br/>class = No Disease>, fillcolor="#fefbf9"] ;
385 -> 387 ;
388 [label=<Diabetes_0 &le; -0.587<br/>entropy = 0.977<br/>samples = 1722<br/>value = [1015, 707]<br/>class = No Disease>, fillcolor="#f7d9c3"] ;
380 -> 388 ;
389 [label=<MentHlth &le; 2.372<br/>entropy = 0.983<br/>samples = 423<br/>value = [179, 244]<br/>class = Disease>, fillcolor="#cae5f8"] ;
388 -> 389 ;
390 [label=<entropy = 0.963<br/>samples = 374<br/>value = [145, 229]<br/>class = Disease>, fillcolor="#b6dbf5"] ;
389 -> 390 ;
391 [label=<entropy = 0.889<br/>samples = 49<br/>value = [34, 15]<br/>class = No Disease>, fillcolor="#f0b990"] ;
389 -> 391 ;
392 [label=<MentHlth &le; 2.312<br/>entropy = 0.94<br/>samples = 1299<br/>value = [836, 463]<br/>class = No Disease>, fillcolor="#f3c7a7"] ;
388 -> 392 ;
393 [label=<entropy = 0.888<br/>samples = 981<br/>value = [681, 300]<br/>class = No Disease>, fillcolor="#f0b990"] ;
392 -> 393 ;
394 [label=<entropy = 1.0<br/>samples = 318<br/>value = [155, 163]<br/>class = Disease>, fillcolor="#f5fafe"] ;
392 -> 394 ;
395 [label=<Diabetes_0 &le; -0.587<br/>entropy = 0.988<br/>samples = 808<br/>value = [351, 457]<br/>class = Disease>, fillcolor="#d1e8f9"] ;
379 -> 395 ;
396 [label=<Fruits &le; -0.249<br/>entropy = 0.783<br/>samples = 176<br/>value = [41, 135]<br/>class = Disease>, fillcolor="#75bbed"] ;
395 -> 396 ;
397 [label=<GenHlth_3 &le; 0.772<br/>entropy = 0.999<br/>samples = 27<br/>value = [13, 14]<br/>class = Disease>, fillcolor="#f1f8fd"] ;
396 -> 397 ;
398 [label=<entropy = 0.918<br/>samples = 21<br/>value = [7, 14]<br/>class = Disease>, fillcolor="#9ccef2"] ;
397 -> 398 ;
399 [label=<entropy = 0.0<br/>samples = 6<br/>value = [6, 0]<br/>class = No Disease>, fillcolor="#e58139"] ;
397 -> 399 ;
400 [label=<Diabetes_2 &le; 0.66<br/>entropy = 0.697<br/>samples = 149<br/>value = [28, 121]<br/>class = Disease>, fillcolor="#67b4eb"] ;
396 -> 400 ;
401 [label=<entropy = 0.353<br/>samples = 30<br/>value = [2, 28]<br/>class = Disease>, fillcolor="#47a4e7"] ;
400 -> 401 ;
402 [label=<entropy = 0.757<br/>samples = 119<br/>value = [26, 93]<br/>class = Disease>, fillcolor="#70b8ec"] ;
400 -> 402 ;
403 [label=<GenHlth_1 &le; 0.515<br/>entropy = 1.0<br/>samples = 632<br/>value = [310, 322]<br/>class = Disease>, fillcolor="#f8fbfe"] ;
395 -> 403 ;
404 [label=<GenHlth_0 &le; 1.186<br/>entropy = 0.981<br/>samples = 517<br/>value = [217, 300]<br/>class = Disease>, fillcolor="#c8e4f8"] ;
403 -> 404 ;
405 [label=<entropy = 0.97<br/>samples = 482<br/>value = [192, 290]<br/>class = Disease>, fillcolor="#bcdef6"] ;
404 -> 405 ;
406 [label=<entropy = 0.863<br/>samples = 35<br/>value = [25, 10]<br/>class = No Disease>, fillcolor="#efb388"] ;
404 -> 406 ;
407 [label=<CholCheck &le; -2.996<br/>entropy = 0.704<br/>samples = 115<br/>value = [93, 22]<br/>class = No Disease>, fillcolor="#eb9f68"] ;
403 -> 407 ;
408 [label=<entropy = 0.0<br/>samples = 6<br/>value = [0, 6]<br/>class = Disease>, fillcolor="#399de5"] ;
407 -> 408 ;
409 [label=<entropy = 0.602<br/>samples = 109<br/>value = [93, 16]<br/>class = No Disease>, fillcolor="#e9975b"] ;
407 -> 409 ;
410 [label=<GenHlth_3 &le; 0.772<br/>entropy = 0.992<br/>samples = 4573<br/>value = [2041, 2532]<br/>class = Disease>, fillcolor="#d9ecfa"] ;
378 -> 410 ;
411 [label=<Age_4 &le; 2.286<br/>entropy = 0.998<br/>samples = 2471<br/>value = [1294, 1177]<br/>class = No Disease>, fillcolor="#fdf4ed"] ;
410 -> 411 ;
412 [label=<Age_12 &le; 1.199<br/>entropy = 0.999<br/>samples = 2429<br/>value = [1252, 1177]<br/>class = No Disease>, fillcolor="#fdf7f3"] ;
411 -> 412 ;
413 [label=<GenHlth_1 &le; 0.515<br/>entropy = 0.994<br/>samples = 2067<br/>value = [1125, 942]<br/>class = No Disease>, fillcolor="#fbebdf"] ;
412 -> 413 ;
414 [label=<entropy = 1.0<br/>samples = 1552<br/>value = [784, 768]<br/>class = No Disease>, fillcolor="#fefcfb"] ;
413 -> 414 ;
415 [label=<entropy = 0.923<br/>samples = 515<br/>value = [341, 174]<br/>class = No Disease>, fillcolor="#f2c19e"] ;
413 -> 415 ;
416 [label=<Diabetes_0 &le; -0.587<br/>entropy = 0.935<br/>samples = 362<br/>value = [127, 235]<br/>class = Disease>, fillcolor="#a4d2f3"] ;
412 -> 416 ;
417 [label=<entropy = 0.622<br/>samples = 84<br/>value = [13, 71]<br/>class = Disease>, fillcolor="#5dafea"] ;
416 -> 417 ;
418 [label=<entropy = 0.977<br/>samples = 278<br/>value = [114, 164]<br/>class = Disease>, fillcolor="#c3e1f7"] ;
416 -> 418 ;
419 [label=<entropy = 0.0<br/>samples = 42<br/>value = [42, 0]<br/>class = No Disease>, fillcolor="#e58139"] ;
411 -> 419 ;
420 [label=<Age_4 &le; 2.286<br/>entropy = 0.939<br/>samples = 2102<br/>value = [747, 1355]<br/>class = Disease>, fillcolor="#a6d3f3"] ;
410 -> 420 ;
421 [label=<Age_5 &le; 1.923<br/>entropy = 0.929<br/>samples = 2044<br/>value = [704, 1340]<br/>class = Disease>, fillcolor="#a1d0f3"] ;
420 -> 421 ;
422 [label=<Age_7 &le; 1.254<br/>entropy = 0.916<br/>samples = 1948<br/>value = [644, 1304]<br/>class = Disease>, fillcolor="#9bcdf2"] ;
421 -> 422 ;
423 [label=<entropy = 0.893<br/>samples = 1663<br/>value = [515, 1148]<br/>class = Disease>, fillcolor="#92c9f1"] ;
422 -> 423 ;
424 [label=<entropy = 0.994<br/>samples = 285<br/>value = [129, 156]<br/>class = Disease>, fillcolor="#ddeefa"] ;
422 -> 424 ;
425 [label=<PhysHlth &le; 0.622<br/>entropy = 0.954<br/>samples = 96<br/>value = [60, 36]<br/>class = No Disease>, fillcolor="#f5cdb0"] ;
421 -> 425 ;
426 [label=<entropy = 0.0<br/>samples = 24<br/>value = [24, 0]<br/>class = No Disease>, fillcolor="#e58139"] ;
425 -> 426 ;
427 [label=<entropy = 1.0<br/>samples = 72<br/>value = [36, 36]<br/>class = No Disease>, fillcolor="#ffffff"] ;
425 -> 427 ;
428 [label=<PhysHlth &le; 1.998<br/>entropy = 0.825<br/>samples = 58<br/>value = [43, 15]<br/>class = No Disease>, fillcolor="#eead7e"] ;
420 -> 428 ;
429 [label=<entropy = 0.0<br/>samples = 32<br/>value = [32, 0]<br/>class = No Disease>, fillcolor="#e58139"] ;
428 -> 429 ;
430 [label=<Veggies &le; -0.711<br/>entropy = 0.983<br/>samples = 26<br/>value = [11, 15]<br/>class = Disease>, fillcolor="#cae5f8"] ;
428 -> 430 ;
431 [label=<entropy = 0.0<br/>samples = 8<br/>value = [0, 8]<br/>class = Disease>, fillcolor="#399de5"] ;
430 -> 431 ;
432 [label=<entropy = 0.964<br/>samples = 18<br/>value = [11, 7]<br/>class = No Disease>, fillcolor="#f6d1b7"] ;
430 -> 432 ;
433 [label=<Age_12 &le; 1.199<br/>entropy = 0.919<br/>samples = 2771<br/>value = [925, 1846]<br/>class = Disease>, fillcolor="#9ccef2"] ;
377 -> 433 ;
434 [label=<Age_10 &le; 1.132<br/>entropy = 0.939<br/>samples = 2433<br/>value = [864, 1569]<br/>class = Disease>, fillcolor="#a6d3f3"] ;
433 -> 434 ;
435 [label=<HighChol &le; -0.097<br/>entropy = 0.955<br/>samples = 2175<br/>value = [817, 1358]<br/>class = Disease>, fillcolor="#b0d8f5"] ;
434 -> 435 ;
436 [label=<Age_11 &le; 1.4<br/>entropy = 0.989<br/>samples = 1069<br/>value = [470, 599]<br/>class = Disease>, fillcolor="#d4eaf9"] ;
435 -> 436 ;
437 [label=<Age_9 &le; 0.984<br/>entropy = 0.998<br/>samples = 938<br/>value = [444, 494]<br/>class = Disease>, fillcolor="#ebf5fc"] ;
436 -> 437 ;
438 [label=<entropy = 1.0<br/>samples = 788<br/>value = [399, 389]<br/>class = No Disease>, fillcolor="#fefcfa"] ;
437 -> 438 ;
439 [label=<entropy = 0.881<br/>samples = 150<br/>value = [45, 105]<br/>class = Disease>, fillcolor="#8ec7f0"] ;
437 -> 439 ;
440 [label=<Fruits &le; -0.249<br/>entropy = 0.719<br/>samples = 131<br/>value = [26, 105]<br/>class = Disease>, fillcolor="#6ab5eb"] ;
436 -> 440 ;
441 [label=<entropy = 0.977<br/>samples = 17<br/>value = [10, 7]<br/>class = No Disease>, fillcolor="#f7d9c4"] ;
440 -> 441 ;
442 [label=<entropy = 0.585<br/>samples = 114<br/>value = [16, 98]<br/>class = Disease>, fillcolor="#59ade9"] ;
440 -> 442 ;
443 [label=<Age_4 &le; 2.286<br/>entropy = 0.897<br/>samples = 1106<br/>value = [347, 759]<br/>class = Disease>, fillcolor="#94caf1"] ;
435 -> 443 ;
444 [label=<Age_3 &le; 2.586<br/>entropy = 0.885<br/>samples = 1077<br/>value = [326, 751]<br/>class = Disease>, fillcolor="#8fc8f0"] ;
443 -> 444 ;
445 [label=<entropy = 0.875<br/>samples = 1057<br/>value = [312, 745]<br/>class = Disease>, fillcolor="#8cc6f0"] ;
444 -> 445 ;
446 [label=<entropy = 0.881<br/>samples = 20<br/>value = [14, 6]<br/>class = No Disease>, fillcolor="#f0b78e"] ;
444 -> 446 ;
447 [label=<AnyHealthcare &le; -2.242<br/>entropy = 0.85<br/>samples = 29<br/>value = [21, 8]<br/>class = No Disease>, fillcolor="#efb184"] ;
443 -> 447 ;
448 [label=<entropy = 0.503<br/>samples = 9<br/>value = [1, 8]<br/>class = Disease>, fillcolor="#52a9e8"] ;
447 -> 448 ;
449 [label=<entropy = 0.0<br/>samples = 20<br/>value = [20, 0]<br/>class = No Disease>, fillcolor="#e58139"] ;
447 -> 449 ;
450 [label=<Diabetes_2 &le; 0.66<br/>entropy = 0.685<br/>samples = 258<br/>value = [47, 211]<br/>class = Disease>, fillcolor="#65b3eb"] ;
434 -> 450 ;
451 [label=<NoDocbcCost &le; 1.372<br/>entropy = 0.824<br/>samples = 159<br/>value = [41, 118]<br/>class = Disease>, fillcolor="#7ebfee"] ;
450 -> 451 ;
452 [label=<PhysHlth &le; 0.575<br/>entropy = 0.9<br/>samples = 117<br/>value = [37, 80]<br/>class = Disease>, fillcolor="#95caf1"] ;
451 -> 452 ;
453 [label=<entropy = 0.0<br/>samples = 6<br/>value = [6, 0]<br/>class = No Disease>, fillcolor="#e58139"] ;
452 -> 453 ;
454 [label=<entropy = 0.854<br/>samples = 111<br/>value = [31, 80]<br/>class = Disease>, fillcolor="#86c3ef"] ;
452 -> 454 ;
455 [label=<PhysHlth &le; 1.761<br/>entropy = 0.454<br/>samples = 42<br/>value = [4, 38]<br/>class = Disease>, fillcolor="#4ea7e8"] ;
451 -> 455 ;
456 [label=<entropy = 0.0<br/>samples = 30<br/>value = [0, 30]<br/>class = Disease>, fillcolor="#399de5"] ;
455 -> 456 ;
457 [label=<entropy = 0.918<br/>samples = 12<br/>value = [4, 8]<br/>class = Disease>, fillcolor="#9ccef2"] ;
455 -> 457 ;
458 [label=<Veggies &le; -0.711<br/>entropy = 0.33<br/>samples = 99<br/>value = [6, 93]<br/>class = Disease>, fillcolor="#46a3e7"] ;
450 -> 458 ;
459 [label=<PhysActivity &le; -0.448<br/>entropy = 0.742<br/>samples = 19<br/>value = [4, 15]<br/>class = Disease>, fillcolor="#6eb7ec"] ;
458 -> 459 ;
460 [label=<entropy = 0.65<br/>samples = 18<br/>value = [3, 15]<br/>class = Disease>, fillcolor="#61b1ea"] ;
459 -> 460 ;
461 [label=<entropy = 0.0<br/>samples = 1<br/>value = [1, 0]<br/>class = No Disease>, fillcolor="#e58139"] ;
459 -> 461 ;
462 [label=<Smoker &le; -0.044<br/>entropy = 0.169<br/>samples = 80<br/>value = [2, 78]<br/>class = Disease>, fillcolor="#3ea0e6"] ;
458 -> 462 ;
463 [label=<entropy = 0.0<br/>samples = 49<br/>value = [0, 49]<br/>class = Disease>, fillcolor="#399de5"] ;
462 -> 463 ;
464 [label=<entropy = 0.345<br/>samples = 31<br/>value = [2, 29]<br/>class = Disease>, fillcolor="#47a4e7"] ;
462 -> 464 ;
465 [label=<Fruits &le; -0.249<br/>entropy = 0.681<br/>samples = 338<br/>value = [61, 277]<br/>class = Disease>, fillcolor="#65b3eb"] ;
433 -> 465 ;
466 [label=<PhysActivity &le; -0.448<br/>entropy = 0.933<br/>samples = 66<br/>value = [23, 43]<br/>class = Disease>, fillcolor="#a3d1f3"] ;
465 -> 466 ;
467 [label=<Smoker &le; -0.044<br/>entropy = 0.889<br/>samples = 62<br/>value = [19, 43]<br/>class = Disease>, fillcolor="#90c8f0"] ;
466 -> 467 ;
468 [label=<MentHlth &le; 1.286<br/>entropy = 0.985<br/>samples = 35<br/>value = [15, 20]<br/>class = Disease>, fillcolor="#cee6f8"] ;
467 -> 468 ;
469 [label=<entropy = 0.918<br/>samples = 30<br/>value = [10, 20]<br/>class = Disease>, fillcolor="#9ccef2"] ;
468 -> 469 ;
470 [label=<entropy = 0.0<br/>samples = 5<br/>value = [5, 0]<br/>class = No Disease>, fillcolor="#e58139"] ;
468 -> 470 ;
471 [label=<MentHlth &le; 1.346<br/>entropy = 0.605<br/>samples = 27<br/>value = [4, 23]<br/>class = Disease>, fillcolor="#5baeea"] ;
467 -> 471 ;
472 [label=<entropy = 0.811<br/>samples = 16<br/>value = [4, 12]<br/>class = Disease>, fillcolor="#7bbeee"] ;
471 -> 472 ;
473 [label=<entropy = 0.0<br/>samples = 11<br/>value = [0, 11]<br/>class = Disease>, fillcolor="#399de5"] ;
471 -> 473 ;
474 [label=<entropy = 0.0<br/>samples = 4<br/>value = [4, 0]<br/>class = No Disease>, fillcolor="#e58139"] ;
466 -> 474 ;
475 [label=<PhysHlth &le; 0.765<br/>entropy = 0.583<br/>samples = 272<br/>value = [38, 234]<br/>class = Disease>, fillcolor="#59ade9"] ;
465 -> 475 ;
476 [label=<Smoker &le; -0.044<br/>entropy = 0.219<br/>samples = 57<br/>value = [2, 55]<br/>class = Disease>, fillcolor="#40a1e6"] ;
475 -> 476 ;
477 [label=<entropy = 0.0<br/>samples = 41<br/>value = [0, 41]<br/>class = Disease>, fillcolor="#399de5"] ;
476 -> 477 ;
478 [label=<MentHlth &le; -0.343<br/>entropy = 0.544<br/>samples = 16<br/>value = [2, 14]<br/>class = Disease>, fillcolor="#55abe9"] ;
476 -> 478 ;
479 [label=<entropy = 0.971<br/>samples = 5<br/>value = [2, 3]<br/>class = Disease>, fillcolor="#bddef6"] ;
478 -> 479 ;
480 [label=<entropy = 0.0<br/>samples = 11<br/>value = [0, 11]<br/>class = Disease>, fillcolor="#399de5"] ;
478 -> 480 ;
481 [label=<Smoker &le; -0.044<br/>entropy = 0.652<br/>samples = 215<br/>value = [36, 179]<br/>class = Disease>, fillcolor="#61b1ea"] ;
475 -> 481 ;
482 [label=<MentHlth &le; 0.984<br/>entropy = 0.787<br/>samples = 102<br/>value = [24, 78]<br/>class = Disease>, fillcolor="#76bbed"] ;
481 -> 482 ;
483 [label=<entropy = 0.658<br/>samples = 94<br/>value = [16, 78]<br/>class = Disease>, fillcolor="#62b1ea"] ;
482 -> 483 ;
484 [label=<entropy = 0.0<br/>samples = 8<br/>value = [8, 0]<br/>class = No Disease>, fillcolor="#e58139"] ;
482 -> 484 ;
485 [label=<PhysHlth &le; 1.524<br/>entropy = 0.488<br/>samples = 113<br/>value = [12, 101]<br/>class = Disease>, fillcolor="#51a9e8"] ;
481 -> 485 ;
486 [label=<entropy = 0.0<br/>samples = 3<br/>value = [3, 0]<br/>class = No Disease>, fillcolor="#e58139"] ;
485 -> 486 ;
487 [label=<entropy = 0.409<br/>samples = 110<br/>value = [9, 101]<br/>class = Disease>, fillcolor="#4ba6e7"] ;
485 -> 487 ;
488 [label=<Age_12 &le; 1.199<br/>entropy = 0.925<br/>samples = 8480<br/>value = [2884, 5596]<br/>class = Disease>, fillcolor="#9fd0f2"] ;
376 -> 488 ;
489 [label=<Diabetes_0 &le; -0.587<br/>entropy = 0.951<br/>samples = 6878<br/>value = [2551, 4327]<br/>class = Disease>, fillcolor="#aed7f4"] ;
488 -> 489 ;
490 [label=<Age_11 &le; 1.4<br/>entropy = 0.81<br/>samples = 1785<br/>value = [445, 1340]<br/>class = Disease>, fillcolor="#7bbeee"] ;
489 -> 490 ;
491 [label=<Veggies &le; -0.711<br/>entropy = 0.849<br/>samples = 1482<br/>value = [408, 1074]<br/>class = Disease>, fillcolor="#84c2ef"] ;
490 -> 491 ;
492 [label=<Age_7 &le; 1.254<br/>entropy = 0.949<br/>samples = 370<br/>value = [136, 234]<br/>class = Disease>, fillcolor="#acd6f4"] ;
491 -> 492 ;
493 [label=<Age_5 &le; 1.923<br/>entropy = 0.918<br/>samples = 351<br/>value = [117, 234]<br/>class = Disease>, fillcolor="#9ccef2"] ;
492 -> 493 ;
494 [label=<entropy = 0.893<br/>samples = 339<br/>value = [105, 234]<br/>class = Disease>, fillcolor="#92c9f1"] ;
493 -> 494 ;
495 [label=<entropy = 0.0<br/>samples = 12<br/>value = [12, 0]<br/>class = No Disease>, fillcolor="#e58139"] ;
493 -> 495 ;
496 [label=<entropy = 0.0<br/>samples = 19<br/>value = [19, 0]<br/>class = No Disease>, fillcolor="#e58139"] ;
492 -> 496 ;
497 [label=<PhysHlth &le; 0.765<br/>entropy = 0.803<br/>samples = 1112<br/>value = [272, 840]<br/>class = Disease>, fillcolor="#79bded"] ;
491 -> 497 ;
498 [label=<Age_5 &le; 1.923<br/>entropy = 0.909<br/>samples = 490<br/>value = [159, 331]<br/>class = Disease>, fillcolor="#98ccf1"] ;
497 -> 498 ;
499 [label=<entropy = 0.883<br/>samples = 474<br/>value = [143, 331]<br/>class = Disease>, fillcolor="#8fc7f0"] ;
498 -> 499 ;
500 [label=<entropy = 0.0<br/>samples = 16<br/>value = [16, 0]<br/>class = No Disease>, fillcolor="#e58139"] ;
498 -> 500 ;
501 [label=<Age_3 &le; 2.586<br/>entropy = 0.684<br/>samples = 622<br/>value = [113, 509]<br/>class = Disease>, fillcolor="#65b3eb"] ;
497 -> 501 ;
502 [label=<entropy = 0.669<br/>samples = 617<br/>value = [108, 509]<br/>class = Disease>, fillcolor="#63b2eb"] ;
501 -> 502 ;
503 [label=<entropy = 0.0<br/>samples = 5<br/>value = [5, 0]<br/>class = No Disease>, fillcolor="#e58139"] ;
501 -> 503 ;
504 [label=<PhysActivity &le; -0.448<br/>entropy = 0.535<br/>samples = 303<br/>value = [37, 266]<br/>class = Disease>, fillcolor="#55abe9"] ;
490 -> 504 ;
505 [label=<MentHlth &le; -0.404<br/>entropy = 0.766<br/>samples = 94<br/>value = [21, 73]<br/>class = Disease>, fillcolor="#72b9ec"] ;
504 -> 505 ;
506 [label=<GenHlth_3 &le; 0.772<br/>entropy = 0.699<br/>samples = 90<br/>value = [17, 73]<br/>class = Disease>, fillcolor="#67b4eb"] ;
505 -> 506 ;
507 [label=<entropy = 0.84<br/>samples = 52<br/>value = [14, 38]<br/>class = Disease>, fillcolor="#82c1ef"] ;
506 -> 507 ;
508 [label=<entropy = 0.398<br/>samples = 38<br/>value = [3, 35]<br/>class = Disease>, fillcolor="#4aa5e7"] ;
506 -> 508 ;
509 [label=<entropy = 0.0<br/>samples = 4<br/>value = [4, 0]<br/>class = No Disease>, fillcolor="#e58139"] ;
505 -> 509 ;
510 [label=<PhysHlth &le; -0.184<br/>entropy = 0.39<br/>samples = 209<br/>value = [16, 193]<br/>class = Disease>, fillcolor="#49a5e7"] ;
504 -> 510 ;
511 [label=<MentHlth &le; 0.079<br/>entropy = 0.687<br/>samples = 71<br/>value = [13, 58]<br/>class = Disease>, fillcolor="#65b3eb"] ;
510 -> 511 ;
512 [label=<entropy = 0.633<br/>samples = 69<br/>value = [11, 58]<br/>class = Disease>, fillcolor="#5fb0ea"] ;
511 -> 512 ;
513 [label=<entropy = 0.0<br/>samples = 2<br/>value = [2, 0]<br/>class = No Disease>, fillcolor="#e58139"] ;
511 -> 513 ;
514 [label=<GenHlth_1 &le; 0.515<br/>entropy = 0.151<br/>samples = 138<br/>value = [3, 135]<br/>class = Disease>, fillcolor="#3d9fe6"] ;
510 -> 514 ;
515 [label=<entropy = 0.11<br/>samples = 137<br/>value = [2, 135]<br/>class = Disease>, fillcolor="#3c9ee5"] ;
514 -> 515 ;
516 [label=<entropy = 0.0<br/>samples = 1<br/>value = [1, 0]<br/>class = No Disease>, fillcolor="#e58139"] ;
514 -> 516 ;
517 [label=<HighChol &le; -0.097<br/>entropy = 0.978<br/>samples = 5093<br/>value = [2106, 2987]<br/>class = Disease>, fillcolor="#c5e2f7"] ;
489 -> 517 ;
518 [label=<GenHlth_1 &le; 0.515<br/>entropy = 1.0<br/>samples = 2809<br/>value = [1376, 1433]<br/>class = Disease>, fillcolor="#f7fbfe"] ;
517 -> 518 ;
519 [label=<Age_10 &le; 1.132<br/>entropy = 0.995<br/>samples = 2487<br/>value = [1135, 1352]<br/>class = Disease>, fillcolor="#dfeffb"] ;
518 -> 519 ;
520 [label=<GenHlth_4 &le; 1.307<br/>entropy = 0.999<br/>samples = 2145<br/>value = [1041, 1104]<br/>class = Disease>, fillcolor="#f4f9fe"] ;
519 -> 520 ;
521 [label=<entropy = 0.996<br/>samples = 1542<br/>value = [827, 715]<br/>class = No Disease>, fillcolor="#fbeee4"] ;
520 -> 521 ;
522 [label=<entropy = 0.938<br/>samples = 603<br/>value = [214, 389]<br/>class = Disease>, fillcolor="#a6d3f3"] ;
520 -> 522 ;
523 [label=<MentHlth &le; -0.283<br/>entropy = 0.848<br/>samples = 342<br/>value = [94, 248]<br/>class = Disease>, fillcolor="#84c2ef"] ;
519 -> 523 ;
524 [label=<entropy = 0.921<br/>samples = 244<br/>value = [82, 162]<br/>class = Disease>, fillcolor="#9dcff2"] ;
523 -> 524 ;
525 [label=<entropy = 0.536<br/>samples = 98<br/>value = [12, 86]<br/>class = Disease>, fillcolor="#55abe9"] ;
523 -> 525 ;
526 [label=<Age_8 &le; 1.068<br/>entropy = 0.814<br/>samples = 322<br/>value = [241, 81]<br/>class = No Disease>, fillcolor="#eeab7c"] ;
518 -> 526 ;
527 [label=<Age_11 &le; 1.4<br/>entropy = 0.658<br/>samples = 247<br/>value = [205, 42]<br/>class = No Disease>, fillcolor="#ea9b62"] ;
526 -> 527 ;
528 [label=<entropy = 0.514<br/>samples = 209<br/>value = [185, 24]<br/>class = No Disease>, fillcolor="#e89153"] ;
527 -> 528 ;
529 [label=<entropy = 0.998<br/>samples = 38<br/>value = [20, 18]<br/>class = No Disease>, fillcolor="#fcf2eb"] ;
527 -> 529 ;
530 [label=<PhysHlth &le; -0.469<br/>entropy = 0.999<br/>samples = 75<br/>value = [36, 39]<br/>class = Disease>, fillcolor="#f0f7fd"] ;
526 -> 530 ;
531 [label=<entropy = 0.0<br/>samples = 16<br/>value = [16, 0]<br/>class = No Disease>, fillcolor="#e58139"] ;
530 -> 531 ;
532 [label=<entropy = 0.924<br/>samples = 59<br/>value = [20, 39]<br/>class = Disease>, fillcolor="#9fcff2"] ;
530 -> 532 ;
533 [label=<GenHlth_1 &le; 0.515<br/>entropy = 0.904<br/>samples = 2284<br/>value = [730, 1554]<br/>class = Disease>, fillcolor="#96cbf1"] ;
517 -> 533 ;
534 [label=<Age_3 &le; 2.586<br/>entropy = 0.876<br/>samples = 2003<br/>value = [593, 1410]<br/>class = Disease>, fillcolor="#8cc6f0"] ;
533 -> 534 ;
535 [label=<GenHlth_2 &le; 0.402<br/>entropy = 0.869<br/>samples = 1987<br/>value = [577, 1410]<br/>class = Disease>, fillcolor="#8ac5f0"] ;
534 -> 535 ;
536 [label=<entropy = 0.819<br/>samples = 1355<br/>value = [345, 1010]<br/>class = Disease>, fillcolor="#7dbeee"] ;
535 -> 536 ;
537 [label=<entropy = 0.948<br/>samples = 632<br/>value = [232, 400]<br/>class = Disease>, fillcolor="#acd6f4"] ;
535 -> 537 ;
538 [label=<entropy = 0.0<br/>samples = 16<br/>value = [16, 0]<br/>class = No Disease>, fillcolor="#e58139"] ;
534 -> 538 ;
539 [label=<Age_6 &le; 1.503<br/>entropy = 1.0<br/>samples = 281<br/>value = [137, 144]<br/>class = Disease>, fillcolor="#f5fafe"] ;
533 -> 539 ;
540 [label=<MentHlth &le; 0.079<br/>entropy = 0.989<br/>samples = 257<br/>value = [113, 144]<br/>class = Disease>, fillcolor="#d4eaf9"] ;
539 -> 540 ;
541 [label=<entropy = 0.971<br/>samples = 240<br/>value = [96, 144]<br/>class = Disease>, fillcolor="#bddef6"] ;
540 -> 541 ;
542 [label=<entropy = 0.0<br/>samples = 17<br/>value = [17, 0]<br/>class = No Disease>, fillcolor="#e58139"] ;
540 -> 542 ;
543 [label=<entropy = 0.0<br/>samples = 24<br/>value = [24, 0]<br/>class = No Disease>, fillcolor="#e58139"] ;
539 -> 543 ;
544 [label=<PhysHlth &le; 0.622<br/>entropy = 0.737<br/>samples = 1602<br/>value = [333, 1269]<br/>class = Disease>, fillcolor="#6db7ec"] ;
488 -> 544 ;
545 [label=<GenHlth_3 &le; 0.772<br/>entropy = 0.851<br/>samples = 892<br/>value = [247, 645]<br/>class = Disease>, fillcolor="#85c3ef"] ;
544 -> 545 ;
546 [label=<AnyHealthcare &le; -2.242<br/>entropy = 0.885<br/>samples = 630<br/>value = [191, 439]<br/>class = Disease>, fillcolor="#8fc8f0"] ;
545 -> 546 ;
547 [label=<entropy = 0.0<br/>samples = 5<br/>value = [5, 0]<br/>class = No Disease>, fillcolor="#e58139"] ;
546 -> 547 ;
548 [label=<GenHlth_4 &le; 1.307<br/>entropy = 0.878<br/>samples = 625<br/>value = [186, 439]<br/>class = Disease>, fillcolor="#8dc7f0"] ;
546 -> 548 ;
549 [label=<Veggies &le; -0.711<br/>entropy = 0.894<br/>samples = 586<br/>value = [182, 404]<br/>class = Disease>, fillcolor="#92c9f1"] ;
548 -> 549 ;
550 [label=<entropy = 0.779<br/>samples = 156<br/>value = [36, 120]<br/>class = Disease>, fillcolor="#74baed"] ;
549 -> 550 ;
551 [label=<entropy = 0.924<br/>samples = 430<br/>value = [146, 284]<br/>class = Disease>, fillcolor="#9fcff2"] ;
549 -> 551 ;
552 [label=<PhysHlth &le; 0.148<br/>entropy = 0.477<br/>samples = 39<br/>value = [4, 35]<br/>class = Disease>, fillcolor="#50a8e8"] ;
548 -> 552 ;
553 [label=<entropy = 0.303<br/>samples = 37<br/>value = [2, 35]<br/>class = Disease>, fillcolor="#44a3e6"] ;
552 -> 553 ;
554 [label=<entropy = 0.0<br/>samples = 2<br/>value = [2, 0]<br/>class = No Disease>, fillcolor="#e58139"] ;
552 -> 554 ;
555 [label=<Smoker &le; -0.044<br/>entropy = 0.749<br/>samples = 262<br/>value = [56, 206]<br/>class = Disease>, fillcolor="#6fb8ec"] ;
545 -> 555 ;
556 [label=<PhysActivity &le; -0.448<br/>entropy = 0.973<br/>samples = 47<br/>value = [19, 28]<br/>class = Disease>, fillcolor="#bfe0f7"] ;
555 -> 556 ;
557 [label=<entropy = 0.0<br/>samples = 11<br/>value = [11, 0]<br/>class = No Disease>, fillcolor="#e58139"] ;
556 -> 557 ;
558 [label=<PhysHlth &le; 0.195<br/>entropy = 0.764<br/>samples = 36<br/>value = [8, 28]<br/>class = Disease>, fillcolor="#72b9ec"] ;
556 -> 558 ;
559 [label=<entropy = 0.672<br/>samples = 34<br/>value = [6, 28]<br/>class = Disease>, fillcolor="#63b2eb"] ;
558 -> 559 ;
560 [label=<entropy = 0.0<br/>samples = 2<br/>value = [2, 0]<br/>class = No Disease>, fillcolor="#e58139"] ;
558 -> 560 ;
561 [label=<NoDocbcCost &le; 1.372<br/>entropy = 0.662<br/>samples = 215<br/>value = [37, 178]<br/>class = Disease>, fillcolor="#62b1ea"] ;
555 -> 561 ;
562 [label=<HvyAlcoholConsump &le; 2.154<br/>entropy = 0.645<br/>samples = 213<br/>value = [35, 178]<br/>class = Disease>, fillcolor="#60b0ea"] ;
561 -> 562 ;
563 [label=<entropy = 0.635<br/>samples = 212<br/>value = [34, 178]<br/>class = Disease>, fillcolor="#5fb0ea"] ;
562 -> 563 ;
564 [label=<entropy = 0.0<br/>samples = 1<br/>value = [1, 0]<br/>class = No Disease>, fillcolor="#e58139"] ;
562 -> 564 ;
565 [label=<entropy = 0.0<br/>samples = 2<br/>value = [2, 0]<br/>class = No Disease>, fillcolor="#e58139"] ;
561 -> 565 ;
566 [label=<GenHlth_1 &le; 0.515<br/>entropy = 0.533<br/>samples = 710<br/>value = [86, 624]<br/>class = Disease>, fillcolor="#54abe9"] ;
544 -> 566 ;
567 [label=<PhysHlth &le; 2.188<br/>entropy = 0.497<br/>samples = 679<br/>value = [74, 605]<br/>class = Disease>, fillcolor="#51a9e8"] ;
566 -> 567 ;
568 [label=<NoDocbcCost &le; 1.372<br/>entropy = 0.355<br/>samples = 253<br/>value = [17, 236]<br/>class = Disease>, fillcolor="#47a4e7"] ;
567 -> 568 ;
569 [label=<MentHlth &le; 1.044<br/>entropy = 0.326<br/>samples = 251<br/>value = [15, 236]<br/>class = Disease>, fillcolor="#46a3e7"] ;
568 -> 569 ;
570 [label=<entropy = 0.382<br/>samples = 202<br/>value = [15, 187]<br/>class = Disease>, fillcolor="#49a5e7"] ;
569 -> 570 ;
571 [label=<entropy = 0.0<br/>samples = 49<br/>value = [0, 49]<br/>class = Disease>, fillcolor="#399de5"] ;
569 -> 571 ;
572 [label=<entropy = 0.0<br/>samples = 2<br/>value = [2, 0]<br/>class = No Disease>, fillcolor="#e58139"] ;
568 -> 572 ;
573 [label=<GenHlth_2 &le; 0.402<br/>entropy = 0.568<br/>samples = 426<br/>value = [57, 369]<br/>class = Disease>, fillcolor="#58ace9"] ;
567 -> 573 ;
574 [label=<MentHlth &le; -0.343<br/>entropy = 0.512<br/>samples = 395<br/>value = [45, 350]<br/>class = Disease>, fillcolor="#52aae8"] ;
573 -> 574 ;
575 [label=<entropy = 0.438<br/>samples = 332<br/>value = [30, 302]<br/>class = Disease>, fillcolor="#4da7e8"] ;
574 -> 575 ;
576 [label=<entropy = 0.792<br/>samples = 63<br/>value = [15, 48]<br/>class = Disease>, fillcolor="#77bced"] ;
574 -> 576 ;
577 [label=<HighChol &le; -0.097<br/>entropy = 0.963<br/>samples = 31<br/>value = [12, 19]<br/>class = Disease>, fillcolor="#b6dbf5"] ;
573 -> 577 ;
578 [label=<entropy = 0.0<br/>samples = 10<br/>value = [10, 0]<br/>class = No Disease>, fillcolor="#e58139"] ;
577 -> 578 ;
579 [label=<entropy = 0.454<br/>samples = 21<br/>value = [2, 19]<br/>class = Disease>, fillcolor="#4ea7e8"] ;
577 -> 579 ;
580 [label=<CholCheck &le; -2.996<br/>entropy = 0.963<br/>samples = 31<br/>value = [12, 19]<br/>class = Disease>, fillcolor="#b6dbf5"] ;
566 -> 580 ;
581 [label=<entropy = 0.0<br/>samples = 7<br/>value = [0, 7]<br/>class = Disease>, fillcolor="#399de5"] ;
580 -> 581 ;
582 [label=<Smoker &le; -0.044<br/>entropy = 1.0<br/>samples = 24<br/>value = [12, 12]<br/>class = No Disease>, fillcolor="#ffffff"] ;
580 -> 582 ;
583 [label=<entropy = 0.0<br/>samples = 10<br/>value = [10, 0]<br/>class = No Disease>, fillcolor="#e58139"] ;
582 -> 583 ;
584 [label=<MentHlth &le; -0.343<br/>entropy = 0.592<br/>samples = 14<br/>value = [2, 12]<br/>class = Disease>, fillcolor="#5aade9"] ;
582 -> 584 ;
585 [label=<entropy = 0.0<br/>samples = 12<br/>value = [0, 12]<br/>class = Disease>, fillcolor="#399de5"] ;
584 -> 585 ;
586 [label=<entropy = 0.0<br/>samples = 2<br/>value = [2, 0]<br/>class = No Disease>, fillcolor="#e58139"] ;
584 -> 586 ;
587 [label=<Diabetes_0 &le; -0.587<br/>entropy = 0.657<br/>samples = 3275<br/>value = [556, 2719]<br/>class = Disease>, fillcolor="#61b1ea"] ;
375 -> 587 ;
588 [label=<GenHlth_1 &le; 0.515<br/>entropy = 0.527<br/>samples = 1032<br/>value = [123, 909]<br/>class = Disease>, fillcolor="#54aae9"] ;
587 -> 588 ;
589 [label=<Age_12 &le; 1.199<br/>entropy = 0.509<br/>samples = 1009<br/>value = [114, 895]<br/>class = Disease>, fillcolor="#52a9e8"] ;
588 -> 589 ;
590 [label=<Smoker &le; -0.044<br/>entropy = 0.545<br/>samples = 812<br/>value = [102, 710]<br/>class = Disease>, fillcolor="#55abe9"] ;
589 -> 590 ;
591 [label=<Fruits &le; -0.249<br/>entropy = 0.665<br/>samples = 277<br/>value = [48, 229]<br/>class = Disease>, fillcolor="#63b2ea"] ;
590 -> 591 ;
592 [label=<Veggies &le; -0.711<br/>entropy = 0.965<br/>samples = 64<br/>value = [25, 39]<br/>class = Disease>, fillcolor="#b8dcf6"] ;
591 -> 592 ;
593 [label=<Age_8 &le; 1.068<br/>entropy = 0.615<br/>samples = 46<br/>value = [7, 39]<br/>class = Disease>, fillcolor="#5dafea"] ;
592 -> 593 ;
594 [label=<entropy = 0.446<br/>samples = 43<br/>value = [4, 39]<br/>class = Disease>, fillcolor="#4da7e8"] ;
593 -> 594 ;
595 [label=<entropy = 0.0<br/>samples = 3<br/>value = [3, 0]<br/>class = No Disease>, fillcolor="#e58139"] ;
593 -> 595 ;
596 [label=<entropy = 0.0<br/>samples = 18<br/>value = [18, 0]<br/>class = No Disease>, fillcolor="#e58139"] ;
592 -> 596 ;
597 [label=<Age_5 &le; 1.923<br/>entropy = 0.494<br/>samples = 213<br/>value = [23, 190]<br/>class = Disease>, fillcolor="#51a9e8"] ;
591 -> 597 ;
598 [label=<MentHlth &le; -0.042<br/>entropy = 0.467<br/>samples = 211<br/>value = [21, 190]<br/>class = Disease>, fillcolor="#4fa8e8"] ;
597 -> 598 ;
599 [label=<entropy = 0.645<br/>samples = 85<br/>value = [14, 71]<br/>class = Disease>, fillcolor="#60b0ea"] ;
598 -> 599 ;
600 [label=<entropy = 0.31<br/>samples = 126<br/>value = [7, 119]<br/>class = Disease>, fillcolor="#45a3e7"] ;
598 -> 600 ;
601 [label=<entropy = 0.0<br/>samples = 2<br/>value = [2, 0]<br/>class = No Disease>, fillcolor="#e58139"] ;
597 -> 601 ;
602 [label=<Age_6 &le; 1.503<br/>entropy = 0.472<br/>samples = 535<br/>value = [54, 481]<br/>class = Disease>, fillcolor="#4fa8e8"] ;
590 -> 602 ;
603 [label=<PhysHlth &le; -0.279<br/>entropy = 0.428<br/>samples = 492<br/>value = [43, 449]<br/>class = Disease>, fillcolor="#4ca6e7"] ;
602 -> 603 ;
604 [label=<Age_7 &le; 1.254<br/>entropy = 0.693<br/>samples = 86<br/>value = [16, 70]<br/>class = Disease>, fillcolor="#66b3eb"] ;
603 -> 604 ;
605 [label=<entropy = 0.573<br/>samples = 81<br/>value = [11, 70]<br/>class = Disease>, fillcolor="#58ace9"] ;
604 -> 605 ;
606 [label=<entropy = 0.0<br/>samples = 5<br/>value = [5, 0]<br/>class = No Disease>, fillcolor="#e58139"] ;
604 -> 606 ;
607 [label=<Fruits &le; -0.249<br/>entropy = 0.353<br/>samples = 406<br/>value = [27, 379]<br/>class = Disease>, fillcolor="#47a4e7"] ;
603 -> 607 ;
608 [label=<entropy = 0.184<br/>samples = 214<br/>value = [6, 208]<br/>class = Disease>, fillcolor="#3fa0e6"] ;
607 -> 608 ;
609 [label=<entropy = 0.498<br/>samples = 192<br/>value = [21, 171]<br/>class = Disease>, fillcolor="#51a9e8"] ;
607 -> 609 ;
610 [label=<PhysHlth &le; 1.287<br/>entropy = 0.82<br/>samples = 43<br/>value = [11, 32]<br/>class = Disease>, fillcolor="#7dbfee"] ;
602 -> 610 ;
611 [label=<entropy = 0.0<br/>samples = 3<br/>value = [3, 0]<br/>class = No Disease>, fillcolor="#e58139"] ;
610 -> 611 ;
612 [label=<NoDocbcCost &le; 1.372<br/>entropy = 0.722<br/>samples = 40<br/>value = [8, 32]<br/>class = Disease>, fillcolor="#6ab6ec"] ;
610 -> 612 ;
613 [label=<entropy = 0.877<br/>samples = 27<br/>value = [8, 19]<br/>class = Disease>, fillcolor="#8cc6f0"] ;
612 -> 613 ;
614 [label=<entropy = 0.0<br/>samples = 13<br/>value = [0, 13]<br/>class = Disease>, fillcolor="#399de5"] ;
612 -> 614 ;
615 [label=<PhysHlth &le; -0.469<br/>entropy = 0.331<br/>samples = 197<br/>value = [12, 185]<br/>class = Disease>, fillcolor="#46a3e7"] ;
589 -> 615 ;
616 [label=<MentHlth &le; -0.343<br/>entropy = 0.093<br/>samples = 84<br/>value = [1, 83]<br/>class = Disease>, fillcolor="#3b9ee5"] ;
615 -> 616 ;
617 [label=<entropy = 0.0<br/>samples = 70<br/>value = [0, 70]<br/>class = Disease>, fillcolor="#399de5"] ;
616 -> 617 ;
618 [label=<MentHlth &le; -0.042<br/>entropy = 0.371<br/>samples = 14<br/>value = [1, 13]<br/>class = Disease>, fillcolor="#48a5e7"] ;
616 -> 618 ;
619 [label=<entropy = 0.0<br/>samples = 1<br/>value = [1, 0]<br/>class = No Disease>, fillcolor="#e58139"] ;
618 -> 619 ;
620 [label=<entropy = 0.0<br/>samples = 13<br/>value = [0, 13]<br/>class = Disease>, fillcolor="#399de5"] ;
618 -> 620 ;
621 [label=<PhysHlth &le; 0.765<br/>entropy = 0.461<br/>samples = 113<br/>value = [11, 102]<br/>class = Disease>, fillcolor="#4ea8e8"] ;
615 -> 621 ;
622 [label=<PhysHlth &le; -0.279<br/>entropy = 0.779<br/>samples = 26<br/>value = [6, 20]<br/>class = Disease>, fillcolor="#74baed"] ;
621 -> 622 ;
623 [label=<PhysHlth &le; -0.374<br/>entropy = 0.276<br/>samples = 21<br/>value = [1, 20]<br/>class = Disease>, fillcolor="#43a2e6"] ;
622 -> 623 ;
624 [label=<entropy = 0.0<br/>samples = 1<br/>value = [1, 0]<br/>class = No Disease>, fillcolor="#e58139"] ;
623 -> 624 ;
625 [label=<entropy = 0.0<br/>samples = 20<br/>value = [0, 20]<br/>class = Disease>, fillcolor="#399de5"] ;
623 -> 625 ;
626 [label=<entropy = 0.0<br/>samples = 5<br/>value = [5, 0]<br/>class = No Disease>, fillcolor="#e58139"] ;
622 -> 626 ;
627 [label=<GenHlth_0 &le; 1.186<br/>entropy = 0.317<br/>samples = 87<br/>value = [5, 82]<br/>class = Disease>, fillcolor="#45a3e7"] ;
621 -> 627 ;
628 [label=<Smoker &le; -0.044<br/>entropy = 0.271<br/>samples = 86<br/>value = [4, 82]<br/>class = Disease>, fillcolor="#43a2e6"] ;
627 -> 628 ;
629 [label=<entropy = 0.137<br/>samples = 52<br/>value = [1, 51]<br/>class = Disease>, fillcolor="#3d9fe6"] ;
628 -> 629 ;
630 [label=<entropy = 0.431<br/>samples = 34<br/>value = [3, 31]<br/>class = Disease>, fillcolor="#4ca6e8"] ;
628 -> 630 ;
631 [label=<entropy = 0.0<br/>samples = 1<br/>value = [1, 0]<br/>class = No Disease>, fillcolor="#e58139"] ;
627 -> 631 ;
632 [label=<MentHlth &le; -0.343<br/>entropy = 0.966<br/>samples = 23<br/>value = [9, 14]<br/>class = Disease>, fillcolor="#b8dcf6"] ;
588 -> 632 ;
633 [label=<PhysActivity &le; -0.448<br/>entropy = 0.672<br/>samples = 17<br/>value = [3, 14]<br/>class = Disease>, fillcolor="#63b2eb"] ;
632 -> 633 ;
634 [label=<entropy = 0.0<br/>samples = 3<br/>value = [3, 0]<br/>class = No Disease>, fillcolor="#e58139"] ;
633 -> 634 ;
635 [label=<entropy = 0.0<br/>samples = 14<br/>value = [0, 14]<br/>class = Disease>, fillcolor="#399de5"] ;
633 -> 635 ;
636 [label=<entropy = 0.0<br/>samples = 6<br/>value = [6, 0]<br/>class = No Disease>, fillcolor="#e58139"] ;
632 -> 636 ;
637 [label=<Sex &le; -0.001<br/>entropy = 0.708<br/>samples = 2243<br/>value = [433, 1810]<br/>class = Disease>, fillcolor="#68b4eb"] ;
587 -> 637 ;
638 [label=<Age_4 &le; 2.286<br/>entropy = 0.759<br/>samples = 1410<br/>value = [309, 1101]<br/>class = Disease>, fillcolor="#71b9ec"] ;
637 -> 638 ;
639 [label=<MentHlth &le; 0.079<br/>entropy = 0.751<br/>samples = 1387<br/>value = [298, 1089]<br/>class = Disease>, fillcolor="#6fb8ec"] ;
638 -> 639 ;
640 [label=<Age_3 &le; 2.586<br/>entropy = 0.804<br/>samples = 692<br/>value = [170, 522]<br/>class = Disease>, fillcolor="#79bded"] ;
639 -> 640 ;
641 [label=<HighChol &le; -0.097<br/>entropy = 0.792<br/>samples = 685<br/>value = [163, 522]<br/>class = Disease>, fillcolor="#77bced"] ;
640 -> 641 ;
642 [label=<CholCheck &le; -2.996<br/>entropy = 0.708<br/>samples = 456<br/>value = [88, 368]<br/>class = Disease>, fillcolor="#68b4eb"] ;
641 -> 642 ;
643 [label=<entropy = 0.0<br/>samples = 2<br/>value = [2, 0]<br/>class = No Disease>, fillcolor="#e58139"] ;
642 -> 643 ;
644 [label=<entropy = 0.7<br/>samples = 454<br/>value = [86, 368]<br/>class = Disease>, fillcolor="#67b4eb"] ;
642 -> 644 ;
645 [label=<Age_6 &le; 1.503<br/>entropy = 0.912<br/>samples = 229<br/>value = [75, 154]<br/>class = Disease>, fillcolor="#99cdf2"] ;
641 -> 645 ;
646 [label=<entropy = 0.885<br/>samples = 221<br/>value = [67, 154]<br/>class = Disease>, fillcolor="#8fc8f0"] ;
645 -> 646 ;
647 [label=<entropy = 0.0<br/>samples = 8<br/>value = [8, 0]<br/>class = No Disease>, fillcolor="#e58139"] ;
645 -> 647 ;
648 [label=<entropy = 0.0<br/>samples = 7<br/>value = [7, 0]<br/>class = No Disease>, fillcolor="#e58139"] ;
640 -> 648 ;
649 [label=<Age_11 &le; 1.4<br/>entropy = 0.689<br/>samples = 695<br/>value = [128, 567]<br/>class = Disease>, fillcolor="#66b3eb"] ;
639 -> 649 ;
650 [label=<PhysActivity &le; -0.448<br/>entropy = 0.679<br/>samples = 691<br/>value = [124, 567]<br/>class = Disease>, fillcolor="#64b2eb"] ;
649 -> 650 ;
651 [label=<MentHlth &le; 2.251<br/>entropy = 0.568<br/>samples = 411<br/>value = [55, 356]<br/>class = Disease>, fillcolor="#58ace9"] ;
650 -> 651 ;
652 [label=<entropy = 0.708<br/>samples = 150<br/>value = [29, 121]<br/>class = Disease>, fillcolor="#68b4eb"] ;
651 -> 652 ;
653 [label=<entropy = 0.468<br/>samples = 261<br/>value = [26, 235]<br/>class = Disease>, fillcolor="#4fa8e8"] ;
651 -> 653 ;
654 [label=<PhysHlth &le; 0.195<br/>entropy = 0.806<br/>samples = 280<br/>value = [69, 211]<br/>class = Disease>, fillcolor="#7abdee"] ;
650 -> 654 ;
655 [label=<entropy = 0.974<br/>samples = 32<br/>value = [19, 13]<br/>class = No Disease>, fillcolor="#f7d7c0"] ;
654 -> 655 ;
656 [label=<entropy = 0.725<br/>samples = 248<br/>value = [50, 198]<br/>class = Disease>, fillcolor="#6bb6ec"] ;
654 -> 656 ;
657 [label=<entropy = 0.0<br/>samples = 4<br/>value = [4, 0]<br/>class = No Disease>, fillcolor="#e58139"] ;
649 -> 657 ;
658 [label=<PhysHlth &le; 1.761<br/>entropy = 0.999<br/>samples = 23<br/>value = [11, 12]<br/>class = Disease>, fillcolor="#eff7fd"] ;
638 -> 658 ;
659 [label=<entropy = 0.0<br/>samples = 7<br/>value = [7, 0]<br/>class = No Disease>, fillcolor="#e58139"] ;
658 -> 659 ;
660 [label=<MentHlth &le; 1.346<br/>entropy = 0.811<br/>samples = 16<br/>value = [4, 12]<br/>class = Disease>, fillcolor="#7bbeee"] ;
658 -> 660 ;
661 [label=<HighChol &le; -0.097<br/>entropy = 0.592<br/>samples = 14<br/>value = [2, 12]<br/>class = Disease>, fillcolor="#5aade9"] ;
660 -> 661 ;
662 [label=<entropy = 0.0<br/>samples = 12<br/>value = [0, 12]<br/>class = Disease>, fillcolor="#399de5"] ;
661 -> 662 ;
663 [label=<entropy = 0.0<br/>samples = 2<br/>value = [2, 0]<br/>class = No Disease>, fillcolor="#e58139"] ;
661 -> 663 ;
664 [label=<entropy = 0.0<br/>samples = 2<br/>value = [2, 0]<br/>class = No Disease>, fillcolor="#e58139"] ;
660 -> 664 ;
665 [label=<Age_5 &le; 1.923<br/>entropy = 0.607<br/>samples = 833<br/>value = [124, 709]<br/>class = Disease>, fillcolor="#5caeea"] ;
637 -> 665 ;
666 [label=<Age_9 &le; 0.984<br/>entropy = 0.589<br/>samples = 826<br/>value = [117, 709]<br/>class = Disease>, fillcolor="#5aade9"] ;
665 -> 666 ;
667 [label=<Veggies &le; -0.711<br/>entropy = 0.555<br/>samples = 744<br/>value = [96, 648]<br/>class = Disease>, fillcolor="#56ace9"] ;
666 -> 667 ;
668 [label=<Age_7 &le; 1.254<br/>entropy = 0.683<br/>samples = 182<br/>value = [33, 149]<br/>class = Disease>, fillcolor="#65b3eb"] ;
667 -> 668 ;
669 [label=<CholCheck &le; -2.996<br/>entropy = 0.568<br/>samples = 172<br/>value = [23, 149]<br/>class = Disease>, fillcolor="#58ace9"] ;
668 -> 669 ;
670 [label=<entropy = 0.0<br/>samples = 2<br/>value = [2, 0]<br/>class = No Disease>, fillcolor="#e58139"] ;
669 -> 670 ;
671 [label=<entropy = 0.539<br/>samples = 170<br/>value = [21, 149]<br/>class = Disease>, fillcolor="#55abe9"] ;
669 -> 671 ;
672 [label=<entropy = 0.0<br/>samples = 10<br/>value = [10, 0]<br/>class = No Disease>, fillcolor="#e58139"] ;
668 -> 672 ;
673 [label=<Age_3 &le; 2.586<br/>entropy = 0.506<br/>samples = 562<br/>value = [63, 499]<br/>class = Disease>, fillcolor="#52a9e8"] ;
667 -> 673 ;
674 [label=<MentHlth &le; 0.562<br/>entropy = 0.492<br/>samples = 559<br/>value = [60, 499]<br/>class = Disease>, fillcolor="#51a9e8"] ;
673 -> 674 ;
675 [label=<entropy = 0.414<br/>samples = 432<br/>value = [36, 396]<br/>class = Disease>, fillcolor="#4ba6e7"] ;
674 -> 675 ;
676 [label=<entropy = 0.699<br/>samples = 127<br/>value = [24, 103]<br/>class = Disease>, fillcolor="#67b4eb"] ;
674 -> 676 ;
677 [label=<entropy = 0.0<br/>samples = 3<br/>value = [3, 0]<br/>class = No Disease>, fillcolor="#e58139"] ;
673 -> 677 ;
678 [label=<MentHlth &le; 1.648<br/>entropy = 0.821<br/>samples = 82<br/>value = [21, 61]<br/>class = Disease>, fillcolor="#7dbfee"] ;
666 -> 678 ;
679 [label=<HighChol &le; -0.097<br/>entropy = 1.0<br/>samples = 40<br/>value = [20, 20]<br/>class = No Disease>, fillcolor="#ffffff"] ;
678 -> 679 ;
680 [label=<entropy = 0.0<br/>samples = 13<br/>value = [13, 0]<br/>class = No Disease>, fillcolor="#e58139"] ;
679 -> 680 ;
681 [label=<PhysHlth &le; -0.279<br/>entropy = 0.826<br/>samples = 27<br/>value = [7, 20]<br/>class = Disease>, fillcolor="#7ebfee"] ;
679 -> 681 ;
682 [label=<entropy = 0.65<br/>samples = 24<br/>value = [4, 20]<br/>class = Disease>, fillcolor="#61b1ea"] ;
681 -> 682 ;
683 [label=<entropy = 0.0<br/>samples = 3<br/>value = [3, 0]<br/>class = No Disease>, fillcolor="#e58139"] ;
681 -> 683 ;
684 [label=<GenHlth_3 &le; 0.772<br/>entropy = 0.162<br/>samples = 42<br/>value = [1, 41]<br/>class = Disease>, fillcolor="#3e9fe6"] ;
678 -> 684 ;
685 [label=<entropy = 0.0<br/>samples = 33<br/>value = [0, 33]<br/>class = Disease>, fillcolor="#399de5"] ;
684 -> 685 ;
686 [label=<Veggies &le; -0.711<br/>entropy = 0.503<br/>samples = 9<br/>value = [1, 8]<br/>class = Disease>, fillcolor="#52a9e8"] ;
684 -> 686 ;
687 [label=<entropy = 0.0<br/>samples = 1<br/>value = [1, 0]<br/>class = No Disease>, fillcolor="#e58139"] ;
686 -> 687 ;
688 [label=<entropy = 0.0<br/>samples = 8<br/>value = [0, 8]<br/>class = Disease>, fillcolor="#399de5"] ;
686 -> 688 ;
689 [label=<entropy = 0.0<br/>samples = 7<br/>value = [7, 0]<br/>class = No Disease>, fillcolor="#e58139"] ;
665 -> 689 ;
690 [label=<DiffWalk &le; 0.494<br/>entropy = 0.93<br/>samples = 210730<br/>value = [72801, 137929]<br/>class = Disease>, fillcolor="#a2d1f3"] ;
0 -> 690 [labeldistance=2.5, labelangle=-45, headlabel="False"] ;
691 [label=<HighChol &le; -0.097<br/>entropy = 0.984<br/>samples = 131980<br/>value = [56168, 75812]<br/>class = Disease>, fillcolor="#cce6f8"] ;
690 -> 691 ;
692 [label=<Stroke &le; 1.367<br/>entropy = 0.98<br/>samples = 44197<br/>value = [25779, 18418]<br/>class = No Disease>, fillcolor="#f8dbc6"] ;
691 -> 692 ;
693 [label=<GenHlth_3 &le; 0.772<br/>entropy = 0.966<br/>samples = 41314<br/>value = [25097, 16217]<br/>class = No Disease>, fillcolor="#f6d2b9"] ;
692 -> 693 ;
694 [label=<Age_12 &le; 1.199<br/>entropy = 0.94<br/>samples = 35438<br/>value = [22799, 12639]<br/>class = No Disease>, fillcolor="#f3c7a7"] ;
693 -> 694 ;
695 [label=<Diabetes_2 &le; 0.66<br/>entropy = 0.911<br/>samples = 31488<br/>value = [21223, 10265]<br/>class = No Disease>, fillcolor="#f2be99"] ;
694 -> 695 ;
696 [label=<Age_11 &le; 1.4<br/>entropy = 0.866<br/>samples = 26457<br/>value = [18834, 7623]<br/>class = No Disease>, fillcolor="#f0b489"] ;
695 -> 696 ;
697 [label=<Age_10 &le; 1.132<br/>entropy = 0.825<br/>samples = 23536<br/>value = [17451, 6085]<br/>class = No Disease>, fillcolor="#eead7e"] ;
696 -> 697 ;
698 [label=<Age_9 &le; 0.984<br/>entropy = 0.772<br/>samples = 19991<br/>value = [15461, 4530]<br/>class = No Disease>, fillcolor="#eda673"] ;
697 -> 698 ;
699 [label=<entropy = 0.706<br/>samples = 15625<br/>value = [12625, 3000]<br/>class = No Disease>, fillcolor="#eb9f68"] ;
698 -> 699 ;
700 [label=<entropy = 0.934<br/>samples = 4366<br/>value = [2836, 1530]<br/>class = No Disease>, fillcolor="#f3c5a4"] ;
698 -> 700 ;
701 [label=<GenHlth_2 &le; 0.402<br/>entropy = 0.989<br/>samples = 3545<br/>value = [1990, 1555]<br/>class = No Disease>, fillcolor="#f9e3d4"] ;
697 -> 701 ;
702 [label=<entropy = 0.942<br/>samples = 2102<br/>value = [1347, 755]<br/>class = No Disease>, fillcolor="#f4c8a8"] ;
701 -> 702 ;
703 [label=<entropy = 0.991<br/>samples = 1443<br/>value = [643, 800]<br/>class = Disease>, fillcolor="#d8ecfa"] ;
701 -> 703 ;
704 [label=<Sex &le; -0.001<br/>entropy = 0.998<br/>samples = 2921<br/>value = [1383, 1538]<br/>class = Disease>, fillcolor="#ebf5fc"] ;
696 -> 704 ;
705 [label=<GenHlth_2 &le; 0.402<br/>entropy = 0.968<br/>samples = 1404<br/>value = [850, 554]<br/>class = No Disease>, fillcolor="#f6d3ba"] ;
704 -> 705 ;
706 [label=<entropy = 0.852<br/>samples = 743<br/>value = [537, 206]<br/>class = No Disease>, fillcolor="#efb185"] ;
705 -> 706 ;
707 [label=<entropy = 0.998<br/>samples = 661<br/>value = [313, 348]<br/>class = Disease>, fillcolor="#ebf5fc"] ;
705 -> 707 ;
708 [label=<CholCheck &le; -2.996<br/>entropy = 0.935<br/>samples = 1517<br/>value = [533, 984]<br/>class = Disease>, fillcolor="#a4d2f3"] ;
704 -> 708 ;
709 [label=<entropy = 0.0<br/>samples = 9<br/>value = [9, 0]<br/>class = No Disease>, fillcolor="#e58139"] ;
708 -> 709 ;
710 [label=<entropy = 0.932<br/>samples = 1508<br/>value = [524, 984]<br/>class = Disease>, fillcolor="#a2d1f3"] ;
708 -> 710 ;
711 [label=<Sex &le; -0.001<br/>entropy = 0.998<br/>samples = 5031<br/>value = [2389, 2642]<br/>class = Disease>, fillcolor="#ecf6fd"] ;
695 -> 711 ;
712 [label=<GenHlth_1 &le; 0.515<br/>entropy = 0.956<br/>samples = 1890<br/>value = [1178, 712]<br/>class = No Disease>, fillcolor="#f5cdb1"] ;
711 -> 712 ;
713 [label=<Age_3 &le; 2.586<br/>entropy = 0.986<br/>samples = 1366<br/>value = [777, 589]<br/>class = No Disease>, fillcolor="#f9e1cf"] ;
712 -> 713 ;
714 [label=<entropy = 0.989<br/>samples = 1345<br/>value = [756, 589]<br/>class = No Disease>, fillcolor="#f9e3d3"] ;
713 -> 714 ;
715 [label=<entropy = 0.0<br/>samples = 21<br/>value = [21, 0]<br/>class = No Disease>, fillcolor="#e58139"] ;
713 -> 715 ;
716 [label=<MentHlth &le; 0.32<br/>entropy = 0.786<br/>samples = 524<br/>value = [401, 123]<br/>class = No Disease>, fillcolor="#eda876"] ;
712 -> 716 ;
717 [label=<entropy = 0.711<br/>samples = 462<br/>value = [372, 90]<br/>class = No Disease>, fillcolor="#eb9f69"] ;
716 -> 717 ;
718 [label=<entropy = 0.997<br/>samples = 62<br/>value = [29, 33]<br/>class = Disease>, fillcolor="#e7f3fc"] ;
716 -> 718 ;
719 [label=<Age_11 &le; 1.4<br/>entropy = 0.962<br/>samples = 3141<br/>value = [1211, 1930]<br/>class = Disease>, fillcolor="#b5daf5"] ;
711 -> 719 ;
720 [label=<Age_10 &le; 1.132<br/>entropy = 0.978<br/>samples = 2654<br/>value = [1095, 1559]<br/>class = Disease>, fillcolor="#c4e2f7"] ;
719 -> 720 ;
721 [label=<entropy = 0.997<br/>samples = 1911<br/>value = [891, 1020]<br/>class = Disease>, fillcolor="#e6f3fc"] ;
720 -> 721 ;
722 [label=<entropy = 0.848<br/>samples = 743<br/>value = [204, 539]<br/>class = Disease>, fillcolor="#84c2ef"] ;
720 -> 722 ;
